digraph Tree {
node [shape=box, style="filled, rounded", color="black", fontname=helvetica] ;
edge [fontname=helvetica] ;
0 [label="Vertical quantile 1 <= 0.124\nentropy = 0.652\nsamples = 3418\nvalue = [217, 196, 3005]", fillcolor="#9153e8"] ;
1 [label="Competency <= 0.5\nentropy = 0.076\nsamples = 704\nvalue = [1, 5, 698]", fillcolor="#823be5"] ;
0 -> 1 [labeldistance=2.5, labelangle=45, headlabel="True"] ;
2 [label="Form_record <= 0.5\nentropy = 0.044\nsamples = 701\nvalue = [1, 2, 698]", fillcolor="#823ae5"] ;
1 -> 2 ;
3 [label="Users_induction <= 0.5\nentropy = 0.016\nsamples = 692\nvalue = [0, 1, 691]", fillcolor="#8139e5"] ;
2 -> 3 ;
4 [label="entropy = 0.0\nsamples = 689\nvalue = [0, 0, 689]", fillcolor="#8139e5"] ;
3 -> 4 ;
5 [label="Vertical quantile 1 <= 0.112\nentropy = 0.918\nsamples = 3\nvalue = [0, 1, 2]", fillcolor="#c09cf2"] ;
3 -> 5 ;
6 [label="entropy = 0.0\nsamples = 2\nvalue = [0, 0, 2]", fillcolor="#8139e5"] ;
5 -> 6 ;
7 [label="entropy = 0.0\nsamples = 1\nvalue = [0, 1, 0]", fillcolor="#39e581"] ;
5 -> 7 ;
8 [label="Form_template <= 9.5\nentropy = 0.986\nsamples = 9\nvalue = [1, 1, 7]", fillcolor="#a06aec"] ;
2 -> 8 ;
9 [label="Users_norm_emp <= 22.5\nentropy = 0.544\nsamples = 8\nvalue = [1, 0, 7]", fillcolor="#9355e9"] ;
8 -> 9 ;
10 [label="entropy = 0.0\nsamples = 7\nvalue = [0, 0, 7]", fillcolor="#8139e5"] ;
9 -> 10 ;
11 [label="entropy = 0.0\nsamples = 1\nvalue = [1, 0, 0]", fillcolor="#e58139"] ;
9 -> 11 ;
12 [label="entropy = 0.0\nsamples = 1\nvalue = [0, 1, 0]", fillcolor="#39e581"] ;
8 -> 12 ;
13 [label="entropy = 0.0\nsamples = 3\nvalue = [0, 3, 0]", fillcolor="#39e581"] ;
1 -> 13 ;
14 [label="Users_induction <= 2.5\nentropy = 0.759\nsamples = 2714\nvalue = [216, 191, 2307]", fillcolor="#9659e9"] ;
0 -> 14 [labeldistance=2.5, labelangle=-45, headlabel="False"] ;
15 [label="Form_record <= 3.5\nentropy = 0.893\nsamples = 2034\nvalue = [212, 176, 1646]", fillcolor="#9c63eb"] ;
14 -> 15 ;
16 [label="Competency <= 0.5\nentropy = 0.964\nsamples = 1548\nvalue = [164, 168, 1216]", fillcolor="#9f69eb"] ;
15 -> 16 ;
17 [label="Form_record <= 0.5\nentropy = 0.847\nsamples = 931\nvalue = [97, 68, 766]", fillcolor="#9a60ea"] ;
16 -> 17 ;
18 [label="Users_induction <= 0.5\nentropy = 0.536\nsamples = 412\nvalue = [18, 20, 374]", fillcolor="#8d4ce8"] ;
17 -> 18 ;
19 [label="entropy = 0.0\nsamples = 301\nvalue = [0, 0, 301]", fillcolor="#8139e5"] ;
18 -> 19 ;
20 [label="Users_norm_emp <= 0.5\nentropy = 1.269\nsamples = 111\nvalue = [18, 20, 73]", fillcolor="#b68cf0"] ;
18 -> 20 ;
21 [label="Horizontal quantile 1 <= 0.251\nentropy = 1.059\nsamples = 85\nvalue = [7, 15, 63]", fillcolor="#a977ed"] ;
20 -> 21 ;
22 [label="Horizontal quantile 1 <= 0.049\nentropy = 0.544\nsamples = 48\nvalue = [0, 6, 42]", fillcolor="#9355e9"] ;
21 -> 22 ;
23 [label="Actions <= 0.5\nentropy = 0.779\nsamples = 26\nvalue = [0, 6, 20]", fillcolor="#a774ed"] ;
22 -> 23 ;
24 [label="Vertical quantile 1 <= 0.231\nentropy = 0.65\nsamples = 24\nvalue = [0, 4, 20]", fillcolor="#9a61ea"] ;
23 -> 24 ;
25 [label="entropy = 0.0\nsamples = 9\nvalue = [0, 0, 9]", fillcolor="#8139e5"] ;
24 -> 25 ;
26 [label="Horizontal quantile 1 <= 0.011\nentropy = 0.837\nsamples = 15\nvalue = [0, 4, 11]", fillcolor="#af81ee"] ;
24 -> 26 ;
27 [label="Users <= 1.5\nentropy = 0.811\nsamples = 4\nvalue = [0, 3, 1]", fillcolor="#7beeab"] ;
26 -> 27 ;
28 [label="Vertical quantile 1 <= 0.4\nentropy = 0.918\nsamples = 3\nvalue = [0, 2, 1]", fillcolor="#9cf2c0"] ;
27 -> 28 ;
29 [label="entropy = 0.0\nsamples = 1\nvalue = [0, 1, 0]", fillcolor="#39e581"] ;
28 -> 29 ;
30 [label="entropy = 1.0\nsamples = 2\nvalue = [0, 1, 1]", fillcolor="#ffffff"] ;
28 -> 30 ;
31 [label="entropy = 0.0\nsamples = 1\nvalue = [0, 1, 0]", fillcolor="#39e581"] ;
27 -> 31 ;
32 [label="Vertical quantile 1 <= 0.241\nentropy = 0.439\nsamples = 11\nvalue = [0, 1, 10]", fillcolor="#8e4de8"] ;
26 -> 32 ;
33 [label="entropy = 0.0\nsamples = 1\nvalue = [0, 1, 0]", fillcolor="#39e581"] ;
32 -> 33 ;
34 [label="entropy = 0.0\nsamples = 10\nvalue = [0, 0, 10]", fillcolor="#8139e5"] ;
32 -> 34 ;
35 [label="entropy = 0.0\nsamples = 2\nvalue = [0, 2, 0]", fillcolor="#39e581"] ;
23 -> 35 ;
36 [label="entropy = 0.0\nsamples = 22\nvalue = [0, 0, 22]", fillcolor="#8139e5"] ;
22 -> 36 ;
37 [label="Horizontal quantile 1 <= 0.48\nentropy = 1.414\nsamples = 37\nvalue = [7, 9, 21]", fillcolor="#c9aaf4"] ;
21 -> 37 ;
38 [label="Horizontal quantile 1 <= 0.365\nentropy = 1.531\nsamples = 14\nvalue = [5, 3, 6]", fillcolor="#f1e9fc"] ;
37 -> 38 ;
39 [label="Vertical quantile 1 <= 0.218\nentropy = 1.435\nsamples = 11\nvalue = [2, 3, 6]", fillcolor="#d0b5f5"] ;
38 -> 39 ;
40 [label="Horizontal quantile 1 <= 0.255\nentropy = 0.918\nsamples = 6\nvalue = [2, 0, 4]", fillcolor="#c09cf2"] ;
39 -> 40 ;
41 [label="entropy = 0.0\nsamples = 1\nvalue = [1, 0, 0]", fillcolor="#e58139"] ;
40 -> 41 ;
42 [label="Vertical quantile 1 <= 0.187\nentropy = 0.722\nsamples = 5\nvalue = [1, 0, 4]", fillcolor="#a06aec"] ;
40 -> 42 ;
43 [label="entropy = 0.0\nsamples = 4\nvalue = [0, 0, 4]", fillcolor="#8139e5"] ;
42 -> 43 ;
44 [label="entropy = 0.0\nsamples = 1\nvalue = [1, 0, 0]", fillcolor="#e58139"] ;
42 -> 44 ;
45 [label="Horizontal quantile 1 <= 0.32\nentropy = 0.971\nsamples = 5\nvalue = [0, 3, 2]", fillcolor="#bdf6d5"] ;
39 -> 45 ;
46 [label="entropy = 0.0\nsamples = 3\nvalue = [0, 3, 0]", fillcolor="#39e581"] ;
45 -> 46 ;
47 [label="entropy = 0.0\nsamples = 2\nvalue = [0, 0, 2]", fillcolor="#8139e5"] ;
45 -> 47 ;
48 [label="entropy = 0.0\nsamples = 3\nvalue = [3, 0, 0]", fillcolor="#e58139"] ;
38 -> 48 ;
49 [label="Actions <= 3.0\nentropy = 1.214\nsamples = 23\nvalue = [2, 6, 15]", fillcolor="#bc96f1"] ;
37 -> 49 ;
50 [label="Users_induction <= 1.5\nentropy = 1.141\nsamples = 20\nvalue = [1, 6, 13]", fillcolor="#c09cf2"] ;
49 -> 50 ;
51 [label="Horizontal quantile 1 <= 0.759\nentropy = 1.449\nsamples = 7\nvalue = [1, 3, 3]", fillcolor="#ffffff"] ;
50 -> 51 ;
52 [label="entropy = 0.0\nsamples = 1\nvalue = [0, 0, 1]", fillcolor="#8139e5"] ;
51 -> 52 ;
53 [label="Users <= 5086.5\nentropy = 1.459\nsamples = 6\nvalue = [1, 3, 2]", fillcolor="#cef8e0"] ;
51 -> 53 ;
54 [label="Incident <= 1.5\nentropy = 1.522\nsamples = 5\nvalue = [1, 2, 2]", fillcolor="#ffffff"] ;
53 -> 54 ;
55 [label="entropy = 1.5\nsamples = 4\nvalue = [1, 1, 2]", fillcolor="#d5bdf6"] ;
54 -> 55 ;
56 [label="entropy = 0.0\nsamples = 1\nvalue = [0, 1, 0]", fillcolor="#39e581"] ;
54 -> 56 ;
57 [label="entropy = 0.0\nsamples = 1\nvalue = [0, 1, 0]", fillcolor="#39e581"] ;
53 -> 57 ;
58 [label="Horizontal quantile 1 <= 0.687\nentropy = 0.779\nsamples = 13\nvalue = [0, 3, 10]", fillcolor="#a774ed"] ;
50 -> 58 ;
59 [label="Vertical quantile 1 <= 0.165\nentropy = 1.0\nsamples = 4\nvalue = [0, 2, 2]", fillcolor="#ffffff"] ;
58 -> 59 ;
60 [label="entropy = 0.0\nsamples = 2\nvalue = [0, 0, 2]", fillcolor="#8139e5"] ;
59 -> 60 ;
61 [label="entropy = 0.0\nsamples = 2\nvalue = [0, 2, 0]", fillcolor="#39e581"] ;
59 -> 61 ;
62 [label="Horizontal quantile 1 <= 1.44\nentropy = 0.503\nsamples = 9\nvalue = [0, 1, 8]", fillcolor="#9152e8"] ;
58 -> 62 ;
63 [label="entropy = 0.0\nsamples = 4\nvalue = [0, 0, 4]", fillcolor="#8139e5"] ;
62 -> 63 ;
64 [label="entropy = 0.722\nsamples = 5\nvalue = [0, 1, 4]", fillcolor="#a06aec"] ;
62 -> 64 ;
65 [label="Users_induction <= 1.5\nentropy = 0.918\nsamples = 3\nvalue = [1, 0, 2]", fillcolor="#c09cf2"] ;
49 -> 65 ;
66 [label="entropy = 0.0\nsamples = 2\nvalue = [0, 0, 2]", fillcolor="#8139e5"] ;
65 -> 66 ;
67 [label="entropy = 0.0\nsamples = 1\nvalue = [1, 0, 0]", fillcolor="#e58139"] ;
65 -> 67 ;
68 [label="Actions <= 1.0\nentropy = 1.513\nsamples = 26\nvalue = [11, 5, 10]", fillcolor="#fdf7f3"] ;
20 -> 68 ;
69 [label="Horizontal quantile 1 <= 0.12\nentropy = 1.497\nsamples = 22\nvalue = [11, 5, 6]", fillcolor="#f7d8c1"] ;
68 -> 69 ;
70 [label="Users <= 21.0\nentropy = 0.954\nsamples = 8\nvalue = [5, 0, 3]", fillcolor="#f5cdb0"] ;
69 -> 70 ;
71 [label="entropy = 0.0\nsamples = 3\nvalue = [3, 0, 0]", fillcolor="#e58139"] ;
70 -> 71 ;
72 [label="Vertical quantile 1 <= 0.174\nentropy = 0.971\nsamples = 5\nvalue = [2, 0, 3]", fillcolor="#d5bdf6"] ;
70 -> 72 ;
73 [label="entropy = 0.0\nsamples = 1\nvalue = [0, 0, 1]", fillcolor="#8139e5"] ;
72 -> 73 ;
74 [label="Users <= 24.5\nentropy = 1.0\nsamples = 4\nvalue = [2, 0, 2]", fillcolor="#ffffff"] ;
72 -> 74 ;
75 [label="entropy = 0.0\nsamples = 1\nvalue = [0, 0, 1]", fillcolor="#8139e5"] ;
74 -> 75 ;
76 [label="Horizontal quantile 1 <= 0.078\nentropy = 0.918\nsamples = 3\nvalue = [2, 0, 1]", fillcolor="#f2c09c"] ;
74 -> 76 ;
77 [label="entropy = 0.0\nsamples = 2\nvalue = [2, 0, 0]", fillcolor="#e58139"] ;
76 -> 77 ;
78 [label="entropy = 0.0\nsamples = 1\nvalue = [0, 0, 1]", fillcolor="#8139e5"] ;
76 -> 78 ;
79 [label="Vertical quantile 1 <= 0.36\nentropy = 1.531\nsamples = 14\nvalue = [6, 5, 3]", fillcolor="#fcf1e9"] ;
69 -> 79 ;
80 [label="Horizontal quantile 1 <= 0.431\nentropy = 0.954\nsamples = 8\nvalue = [5, 3, 0]", fillcolor="#f5cdb0"] ;
79 -> 80 ;
81 [label="Users <= 2.5\nentropy = 1.0\nsamples = 6\nvalue = [3, 3, 0]", fillcolor="#ffffff"] ;
80 -> 81 ;
82 [label="entropy = 0.0\nsamples = 2\nvalue = [2, 0, 0]", fillcolor="#e58139"] ;
81 -> 82 ;
83 [label="Users_induction <= 1.5\nentropy = 0.811\nsamples = 4\nvalue = [1, 3, 0]", fillcolor="#7beeab"] ;
81 -> 83 ;
84 [label="entropy = 0.0\nsamples = 2\nvalue = [0, 2, 0]", fillcolor="#39e581"] ;
83 -> 84 ;
85 [label="Users_norm_emp <= 23.0\nentropy = 1.0\nsamples = 2\nvalue = [1, 1, 0]", fillcolor="#ffffff"] ;
83 -> 85 ;
86 [label="entropy = 0.0\nsamples = 1\nvalue = [1, 0, 0]", fillcolor="#e58139"] ;
85 -> 86 ;
87 [label="entropy = 0.0\nsamples = 1\nvalue = [0, 1, 0]", fillcolor="#39e581"] ;
85 -> 87 ;
88 [label="entropy = 0.0\nsamples = 2\nvalue = [2, 0, 0]", fillcolor="#e58139"] ;
80 -> 88 ;
89 [label="Users_induction <= 1.5\nentropy = 1.459\nsamples = 6\nvalue = [1, 2, 3]", fillcolor="#e0cef8"] ;
79 -> 89 ;
90 [label="Vertical quantile 1 <= 1.185\nentropy = 0.971\nsamples = 5\nvalue = [0, 2, 3]", fillcolor="#d5bdf6"] ;
89 -> 90 ;
91 [label="entropy = 0.0\nsamples = 1\nvalue = [0, 0, 1]", fillcolor="#8139e5"] ;
90 -> 91 ;
92 [label="Users <= 156.0\nentropy = 1.0\nsamples = 4\nvalue = [0, 2, 2]", fillcolor="#ffffff"] ;
90 -> 92 ;
93 [label="Users <= 17.0\nentropy = 0.918\nsamples = 3\nvalue = [0, 2, 1]", fillcolor="#9cf2c0"] ;
92 -> 93 ;
94 [label="entropy = 1.0\nsamples = 2\nvalue = [0, 1, 1]", fillcolor="#ffffff"] ;
93 -> 94 ;
95 [label="entropy = 0.0\nsamples = 1\nvalue = [0, 1, 0]", fillcolor="#39e581"] ;
93 -> 95 ;
96 [label="entropy = 0.0\nsamples = 1\nvalue = [0, 0, 1]", fillcolor="#8139e5"] ;
92 -> 96 ;
97 [label="entropy = 0.0\nsamples = 1\nvalue = [1, 0, 0]", fillcolor="#e58139"] ;
89 -> 97 ;
98 [label="entropy = 0.0\nsamples = 4\nvalue = [0, 0, 4]", fillcolor="#8139e5"] ;
68 -> 98 ;
99 [label="Horizontal quantile 1 <= 0.793\nentropy = 1.037\nsamples = 519\nvalue = [79, 48, 392]", fillcolor="#a572ed"] ;
17 -> 99 ;
100 [label="Horizontal quantile 1 <= 0.109\nentropy = 0.857\nsamples = 385\nvalue = [37, 32, 316]", fillcolor="#9a60ea"] ;
99 -> 100 ;
101 [label="Vertical quantile 1 <= 0.223\nentropy = 0.989\nsamples = 77\nvalue = [4, 15, 58]", fillcolor="#a876ed"] ;
100 -> 101 ;
102 [label="Horizontal quantile 1 <= 0.024\nentropy = 1.157\nsamples = 20\nvalue = [4, 2, 14]", fillcolor="#b083ef"] ;
101 -> 102 ;
103 [label="Actions <= 2.0\nentropy = 0.971\nsamples = 10\nvalue = [4, 0, 6]", fillcolor="#d5bdf6"] ;
102 -> 103 ;
104 [label="Horizontal quantile 1 <= 0.011\nentropy = 0.918\nsamples = 6\nvalue = [4, 0, 2]", fillcolor="#f2c09c"] ;
103 -> 104 ;
105 [label="entropy = 0.0\nsamples = 3\nvalue = [3, 0, 0]", fillcolor="#e58139"] ;
104 -> 105 ;
106 [label="Horizontal quantile 1 <= 0.019\nentropy = 0.918\nsamples = 3\nvalue = [1, 0, 2]", fillcolor="#c09cf2"] ;
104 -> 106 ;
107 [label="entropy = 0.0\nsamples = 2\nvalue = [0, 0, 2]", fillcolor="#8139e5"] ;
106 -> 107 ;
108 [label="entropy = 0.0\nsamples = 1\nvalue = [1, 0, 0]", fillcolor="#e58139"] ;
106 -> 108 ;
109 [label="entropy = 0.0\nsamples = 4\nvalue = [0, 0, 4]", fillcolor="#8139e5"] ;
103 -> 109 ;
110 [label="Horizontal quantile 1 <= 0.054\nentropy = 0.722\nsamples = 10\nvalue = [0, 2, 8]", fillcolor="#a06aec"] ;
102 -> 110 ;
111 [label="entropy = 0.0\nsamples = 6\nvalue = [0, 0, 6]", fillcolor="#8139e5"] ;
110 -> 111 ;
112 [label="Form_record <= 1.5\nentropy = 1.0\nsamples = 4\nvalue = [0, 2, 2]", fillcolor="#ffffff"] ;
110 -> 112 ;
113 [label="entropy = 0.0\nsamples = 2\nvalue = [0, 2, 0]", fillcolor="#39e581"] ;
112 -> 113 ;
114 [label="entropy = 0.0\nsamples = 2\nvalue = [0, 0, 2]", fillcolor="#8139e5"] ;
112 -> 114 ;
115 [label="Horizontal quantile 1 <= 0.01\nentropy = 0.775\nsamples = 57\nvalue = [0, 13, 44]", fillcolor="#a674ed"] ;
101 -> 115 ;
116 [label="Users_norm_emp <= 0.5\nentropy = 0.989\nsamples = 16\nvalue = [0, 7, 9]", fillcolor="#e3d3f9"] ;
115 -> 116 ;
117 [label="Vertical quantile 1 <= 0.541\nentropy = 0.94\nsamples = 14\nvalue = [0, 5, 9]", fillcolor="#c7a7f3"] ;
116 -> 117 ;
118 [label="Horizontal quantile 1 <= 0.008\nentropy = 0.811\nsamples = 12\nvalue = [0, 3, 9]", fillcolor="#ab7bee"] ;
117 -> 118 ;
119 [label="Vertical quantile 1 <= 0.297\nentropy = 0.684\nsamples = 11\nvalue = [0, 2, 9]", fillcolor="#9d65eb"] ;
118 -> 119 ;
120 [label="entropy = 0.0\nsamples = 4\nvalue = [0, 0, 4]", fillcolor="#8139e5"] ;
119 -> 120 ;
121 [label="Vertical quantile 1 <= 0.382\nentropy = 0.863\nsamples = 7\nvalue = [0, 2, 5]", fillcolor="#b388ef"] ;
119 -> 121 ;
122 [label="Form_record <= 1.5\nentropy = 0.918\nsamples = 3\nvalue = [0, 2, 1]", fillcolor="#9cf2c0"] ;
121 -> 122 ;
123 [label="Vertical quantile 1 <= 0.307\nentropy = 1.0\nsamples = 2\nvalue = [0, 1, 1]", fillcolor="#ffffff"] ;
122 -> 123 ;
124 [label="entropy = 0.0\nsamples = 1\nvalue = [0, 1, 0]", fillcolor="#39e581"] ;
123 -> 124 ;
125 [label="entropy = 0.0\nsamples = 1\nvalue = [0, 0, 1]", fillcolor="#8139e5"] ;
123 -> 125 ;
126 [label="entropy = 0.0\nsamples = 1\nvalue = [0, 1, 0]", fillcolor="#39e581"] ;
122 -> 126 ;
127 [label="entropy = 0.0\nsamples = 4\nvalue = [0, 0, 4]", fillcolor="#8139e5"] ;
121 -> 127 ;
128 [label="entropy = 0.0\nsamples = 1\nvalue = [0, 1, 0]", fillcolor="#39e581"] ;
118 -> 128 ;
129 [label="entropy = 0.0\nsamples = 2\nvalue = [0, 2, 0]", fillcolor="#39e581"] ;
117 -> 129 ;
130 [label="entropy = 0.0\nsamples = 2\nvalue = [0, 2, 0]", fillcolor="#39e581"] ;
116 -> 130 ;
131 [label="Vertical quantile 1 <= 0.298\nentropy = 0.601\nsamples = 41\nvalue = [0, 6, 35]", fillcolor="#975be9"] ;
115 -> 131 ;
132 [label="Incident <= 0.5\nentropy = 0.267\nsamples = 22\nvalue = [0, 1, 21]", fillcolor="#8742e6"] ;
131 -> 132 ;
133 [label="entropy = 0.0\nsamples = 20\nvalue = [0, 0, 20]", fillcolor="#8139e5"] ;
132 -> 133 ;
134 [label="Form_record <= 2.5\nentropy = 1.0\nsamples = 2\nvalue = [0, 1, 1]", fillcolor="#ffffff"] ;
132 -> 134 ;
135 [label="entropy = 0.0\nsamples = 1\nvalue = [0, 0, 1]", fillcolor="#8139e5"] ;
134 -> 135 ;
136 [label="entropy = 0.0\nsamples = 1\nvalue = [0, 1, 0]", fillcolor="#39e581"] ;
134 -> 136 ;
137 [label="Vertical quantile 1 <= 0.408\nentropy = 0.831\nsamples = 19\nvalue = [0, 5, 14]", fillcolor="#ae80ee"] ;
131 -> 137 ;
138 [label="Form_record <= 2.5\nentropy = 0.94\nsamples = 14\nvalue = [0, 5, 9]", fillcolor="#c7a7f3"] ;
137 -> 138 ;
139 [label="Horizontal quantile 1 <= 0.082\nentropy = 0.994\nsamples = 11\nvalue = [0, 5, 6]", fillcolor="#eadefb"] ;
138 -> 139 ;
140 [label="Vertical quantile 1 <= 0.389\nentropy = 0.971\nsamples = 10\nvalue = [0, 4, 6]", fillcolor="#d5bdf6"] ;
139 -> 140 ;
141 [label="Vertical quantile 1 <= 0.357\nentropy = 1.0\nsamples = 8\nvalue = [0, 4, 4]", fillcolor="#ffffff"] ;
140 -> 141 ;
142 [label="Horizontal quantile 1 <= 0.042\nentropy = 0.918\nsamples = 6\nvalue = [0, 2, 4]", fillcolor="#c09cf2"] ;
141 -> 142 ;
143 [label="entropy = 0.0\nsamples = 2\nvalue = [0, 2, 0]", fillcolor="#39e581"] ;
142 -> 143 ;
144 [label="entropy = 0.0\nsamples = 4\nvalue = [0, 0, 4]", fillcolor="#8139e5"] ;
142 -> 144 ;
145 [label="entropy = 0.0\nsamples = 2\nvalue = [0, 2, 0]", fillcolor="#39e581"] ;
141 -> 145 ;
146 [label="entropy = 0.0\nsamples = 2\nvalue = [0, 0, 2]", fillcolor="#8139e5"] ;
140 -> 146 ;
147 [label="entropy = 0.0\nsamples = 1\nvalue = [0, 1, 0]", fillcolor="#39e581"] ;
139 -> 147 ;
148 [label="entropy = 0.0\nsamples = 3\nvalue = [0, 0, 3]", fillcolor="#8139e5"] ;
138 -> 148 ;
149 [label="entropy = 0.0\nsamples = 5\nvalue = [0, 0, 5]", fillcolor="#8139e5"] ;
137 -> 149 ;
150 [label="Assets <= 39.0\nentropy = 0.79\nsamples = 308\nvalue = [33, 17, 258]", fillcolor="#985dea"] ;
100 -> 150 ;
151 [label="Incident <= 0.5\nentropy = 0.737\nsamples = 300\nvalue = [29, 15, 256]", fillcolor="#9559e9"] ;
150 -> 151 ;
152 [label="Horizontal quantile 1 <= 0.287\nentropy = 0.535\nsamples = 172\nvalue = [6, 10, 156]", fillcolor="#8d4de8"] ;
151 -> 152 ;
153 [label="Users_induction <= 0.5\nentropy = 0.365\nsamples = 43\nvalue = [3, 0, 40]", fillcolor="#8a48e7"] ;
152 -> 153 ;
154 [label="Horizontal quantile 1 <= 0.222\nentropy = 0.276\nsamples = 42\nvalue = [2, 0, 40]", fillcolor="#8743e6"] ;
153 -> 154 ;
155 [label="Horizontal quantile 1 <= 0.221\nentropy = 0.485\nsamples = 19\nvalue = [2, 0, 17]", fillcolor="#9050e8"] ;
154 -> 155 ;
156 [label="Vertical quantile 1 <= 0.208\nentropy = 0.31\nsamples = 18\nvalue = [1, 0, 17]", fillcolor="#8845e7"] ;
155 -> 156 ;
157 [label="Vertical quantile 1 <= 0.194\nentropy = 0.918\nsamples = 3\nvalue = [1, 0, 2]", fillcolor="#c09cf2"] ;
156 -> 157 ;
158 [label="entropy = 0.0\nsamples = 2\nvalue = [0, 0, 2]", fillcolor="#8139e5"] ;
157 -> 158 ;
159 [label="entropy = 0.0\nsamples = 1\nvalue = [1, 0, 0]", fillcolor="#e58139"] ;
157 -> 159 ;
160 [label="entropy = 0.0\nsamples = 15\nvalue = [0, 0, 15]", fillcolor="#8139e5"] ;
156 -> 160 ;
161 [label="entropy = 0.0\nsamples = 1\nvalue = [1, 0, 0]", fillcolor="#e58139"] ;
155 -> 161 ;
162 [label="entropy = 0.0\nsamples = 23\nvalue = [0, 0, 23]", fillcolor="#8139e5"] ;
154 -> 162 ;
163 [label="entropy = 0.0\nsamples = 1\nvalue = [1, 0, 0]", fillcolor="#e58139"] ;
153 -> 163 ;
164 [label="Horizontal quantile 1 <= 0.334\nentropy = 0.55\nsamples = 129\nvalue = [3, 10, 116]", fillcolor="#8f4fe8"] ;
152 -> 164 ;
165 [label="Vertical quantile 1 <= 0.205\nentropy = 0.918\nsamples = 15\nvalue = [0, 5, 10]", fillcolor="#c09cf2"] ;
164 -> 165 ;
166 [label="entropy = 0.0\nsamples = 4\nvalue = [0, 0, 4]", fillcolor="#8139e5"] ;
165 -> 166 ;
167 [label="Assets <= 11.5\nentropy = 0.994\nsamples = 11\nvalue = [0, 5, 6]", fillcolor="#eadefb"] ;
165 -> 167 ;
168 [label="Vertical quantile 1 <= 0.4\nentropy = 0.863\nsamples = 7\nvalue = [0, 5, 2]", fillcolor="#88efb3"] ;
167 -> 168 ;
169 [label="entropy = 0.0\nsamples = 5\nvalue = [0, 5, 0]", fillcolor="#39e581"] ;
168 -> 169 ;
170 [label="entropy = 0.0\nsamples = 2\nvalue = [0, 0, 2]", fillcolor="#8139e5"] ;
168 -> 170 ;
171 [label="entropy = 0.0\nsamples = 4\nvalue = [0, 0, 4]", fillcolor="#8139e5"] ;
167 -> 171 ;
172 [label="Horizontal quantile 1 <= 0.487\nentropy = 0.434\nsamples = 114\nvalue = [3, 5, 106]", fillcolor="#8a48e7"] ;
164 -> 172 ;
173 [label="Horizontal quantile 1 <= 0.485\nentropy = 0.414\nsamples = 36\nvalue = [0, 3, 33]", fillcolor="#8c4be7"] ;
172 -> 173 ;
174 [label="Horizontal quantile 1 <= 0.408\nentropy = 0.316\nsamples = 35\nvalue = [0, 2, 33]", fillcolor="#8945e7"] ;
173 -> 174 ;
175 [label="entropy = 0.0\nsamples = 20\nvalue = [0, 0, 20]", fillcolor="#8139e5"] ;
174 -> 175 ;
176 [label="Horizontal quantile 1 <= 0.412\nentropy = 0.567\nsamples = 15\nvalue = [0, 2, 13]", fillcolor="#9457e9"] ;
174 -> 176 ;
177 [label="Horizontal quantile 1 <= 0.411\nentropy = 1.0\nsamples = 4\nvalue = [0, 2, 2]", fillcolor="#ffffff"] ;
176 -> 177 ;
178 [label="Vertical quantile 1 <= 0.188\nentropy = 0.918\nsamples = 3\nvalue = [0, 1, 2]", fillcolor="#c09cf2"] ;
177 -> 178 ;
179 [label="entropy = 0.0\nsamples = 1\nvalue = [0, 1, 0]", fillcolor="#39e581"] ;
178 -> 179 ;
180 [label="entropy = 0.0\nsamples = 2\nvalue = [0, 0, 2]", fillcolor="#8139e5"] ;
178 -> 180 ;
181 [label="entropy = 0.0\nsamples = 1\nvalue = [0, 1, 0]", fillcolor="#39e581"] ;
177 -> 181 ;
182 [label="entropy = 0.0\nsamples = 11\nvalue = [0, 0, 11]", fillcolor="#8139e5"] ;
176 -> 182 ;
183 [label="entropy = 0.0\nsamples = 1\nvalue = [0, 1, 0]", fillcolor="#39e581"] ;
173 -> 183 ;
184 [label="Form_template <= 0.5\nentropy = 0.406\nsamples = 78\nvalue = [3, 2, 73]", fillcolor="#8946e7"] ;
172 -> 184 ;
185 [label="Actions <= 1.5\nentropy = 0.203\nsamples = 63\nvalue = [2, 0, 61]", fillcolor="#853fe6"] ;
184 -> 185 ;
186 [label="Horizontal quantile 1 <= 0.716\nentropy = 0.122\nsamples = 60\nvalue = [1, 0, 59]", fillcolor="#833ce5"] ;
185 -> 186 ;
187 [label="entropy = 0.0\nsamples = 43\nvalue = [0, 0, 43]", fillcolor="#8139e5"] ;
186 -> 187 ;
188 [label="Horizontal quantile 1 <= 0.717\nentropy = 0.323\nsamples = 17\nvalue = [1, 0, 16]", fillcolor="#8945e7"] ;
186 -> 188 ;
189 [label="entropy = 0.0\nsamples = 1\nvalue = [1, 0, 0]", fillcolor="#e58139"] ;
188 -> 189 ;
190 [label="entropy = 0.0\nsamples = 16\nvalue = [0, 0, 16]", fillcolor="#8139e5"] ;
188 -> 190 ;
191 [label="Vertical quantile 1 <= 0.185\nentropy = 0.918\nsamples = 3\nvalue = [1, 0, 2]", fillcolor="#c09cf2"] ;
185 -> 191 ;
192 [label="entropy = 0.0\nsamples = 1\nvalue = [1, 0, 0]", fillcolor="#e58139"] ;
191 -> 192 ;
193 [label="entropy = 0.0\nsamples = 2\nvalue = [0, 0, 2]", fillcolor="#8139e5"] ;
191 -> 193 ;
194 [label="Form_template <= 2.5\nentropy = 0.906\nsamples = 15\nvalue = [1, 2, 12]", fillcolor="#9e67eb"] ;
184 -> 194 ;
195 [label="Users_norm_emp <= 2.5\nentropy = 0.619\nsamples = 13\nvalue = [0, 2, 11]", fillcolor="#985dea"] ;
194 -> 195 ;
196 [label="Vertical quantile 1 <= 0.46\nentropy = 0.414\nsamples = 12\nvalue = [0, 1, 11]", fillcolor="#8c4be7"] ;
195 -> 196 ;
197 [label="entropy = 0.0\nsamples = 10\nvalue = [0, 0, 10]", fillcolor="#8139e5"] ;
196 -> 197 ;
198 [label="Form_record <= 1.5\nentropy = 1.0\nsamples = 2\nvalue = [0, 1, 1]", fillcolor="#ffffff"] ;
196 -> 198 ;
199 [label="entropy = 0.0\nsamples = 1\nvalue = [0, 1, 0]", fillcolor="#39e581"] ;
198 -> 199 ;
200 [label="entropy = 0.0\nsamples = 1\nvalue = [0, 0, 1]", fillcolor="#8139e5"] ;
198 -> 200 ;
201 [label="entropy = 0.0\nsamples = 1\nvalue = [0, 1, 0]", fillcolor="#39e581"] ;
195 -> 201 ;
202 [label="Horizontal quantile 1 <= 0.681\nentropy = 1.0\nsamples = 2\nvalue = [1, 0, 1]", fillcolor="#ffffff"] ;
194 -> 202 ;
203 [label="entropy = 0.0\nsamples = 1\nvalue = [1, 0, 0]", fillcolor="#e58139"] ;
202 -> 203 ;
204 [label="entropy = 0.0\nsamples = 1\nvalue = [0, 0, 1]", fillcolor="#8139e5"] ;
202 -> 204 ;
205 [label="Form_record <= 2.5\nentropy = 0.906\nsamples = 128\nvalue = [23, 5, 100]", fillcolor="#a36eec"] ;
151 -> 205 ;
206 [label="Actions <= 23.5\nentropy = 1.046\nsamples = 94\nvalue = [21, 5, 68]", fillcolor="#ae80ee"] ;
205 -> 206 ;
207 [label="Users_norm_emp <= 6.0\nentropy = 1.101\nsamples = 79\nvalue = [21, 4, 54]", fillcolor="#b78ef0"] ;
206 -> 207 ;
208 [label="Actions <= 10.5\nentropy = 1.235\nsamples = 56\nvalue = [18, 4, 34]", fillcolor="#caacf4"] ;
207 -> 208 ;
209 [label="Users <= 4.5\nentropy = 1.164\nsamples = 50\nvalue = [12, 4, 34]", fillcolor="#b68cf0"] ;
208 -> 209 ;
210 [label="Vertical quantile 1 <= 0.169\nentropy = 1.123\nsamples = 48\nvalue = [10, 4, 34]", fillcolor="#af82ef"] ;
209 -> 210 ;
211 [label="Vertical quantile 1 <= 0.138\nentropy = 0.544\nsamples = 8\nvalue = [0, 1, 7]", fillcolor="#9355e9"] ;
210 -> 211 ;
212 [label="Users_norm_emp <= 2.0\nentropy = 1.0\nsamples = 2\nvalue = [0, 1, 1]", fillcolor="#ffffff"] ;
211 -> 212 ;
213 [label="entropy = 0.0\nsamples = 1\nvalue = [0, 1, 0]", fillcolor="#39e581"] ;
212 -> 213 ;
214 [label="entropy = 0.0\nsamples = 1\nvalue = [0, 0, 1]", fillcolor="#8139e5"] ;
212 -> 214 ;
215 [label="entropy = 0.0\nsamples = 6\nvalue = [0, 0, 6]", fillcolor="#8139e5"] ;
211 -> 215 ;
216 [label="Vertical quantile 1 <= 0.171\nentropy = 1.163\nsamples = 40\nvalue = [10, 3, 27]", fillcolor="#b88ff0"] ;
210 -> 216 ;
217 [label="entropy = 0.0\nsamples = 2\nvalue = [2, 0, 0]", fillcolor="#e58139"] ;
216 -> 217 ;
218 [label="Users_norm_emp <= 0.5\nentropy = 1.113\nsamples = 38\nvalue = [8, 3, 27]", fillcolor="#af82ef"] ;
216 -> 218 ;
219 [label="Horizontal quantile 1 <= 0.462\nentropy = 1.131\nsamples = 25\nvalue = [4, 3, 18]", fillcolor="#ab7bee"] ;
218 -> 219 ;
220 [label="Horizontal quantile 1 <= 0.319\nentropy = 1.457\nsamples = 15\nvalue = [4, 3, 8]", fillcolor="#d1b7f6"] ;
219 -> 220 ;
221 [label="Incident <= 1.5\nentropy = 1.281\nsamples = 12\nvalue = [4, 1, 7]", fillcolor="#d0b5f5"] ;
220 -> 221 ;
222 [label="Vertical quantile 1 <= 0.195\nentropy = 1.252\nsamples = 6\nvalue = [1, 1, 4]", fillcolor="#b388ef"] ;
221 -> 222 ;
223 [label="entropy = 0.0\nsamples = 1\nvalue = [1, 0, 0]", fillcolor="#e58139"] ;
222 -> 223 ;
224 [label="Vertical quantile 1 <= 0.28\nentropy = 0.722\nsamples = 5\nvalue = [0, 1, 4]", fillcolor="#a06aec"] ;
222 -> 224 ;
225 [label="Horizontal quantile 1 <= 0.171\nentropy = 1.0\nsamples = 2\nvalue = [0, 1, 1]", fillcolor="#ffffff"] ;
224 -> 225 ;
226 [label="entropy = 0.0\nsamples = 1\nvalue = [0, 1, 0]", fillcolor="#39e581"] ;
225 -> 226 ;
227 [label="entropy = 0.0\nsamples = 1\nvalue = [0, 0, 1]", fillcolor="#8139e5"] ;
225 -> 227 ;
228 [label="entropy = 0.0\nsamples = 3\nvalue = [0, 0, 3]", fillcolor="#8139e5"] ;
224 -> 228 ;
229 [label="Vertical quantile 1 <= 0.212\nentropy = 1.0\nsamples = 6\nvalue = [3, 0, 3]", fillcolor="#ffffff"] ;
221 -> 229 ;
230 [label="entropy = 0.0\nsamples = 3\nvalue = [0, 0, 3]", fillcolor="#8139e5"] ;
229 -> 230 ;
231 [label="entropy = 0.0\nsamples = 3\nvalue = [3, 0, 0]", fillcolor="#e58139"] ;
229 -> 231 ;
232 [label="Incident <= 4.0\nentropy = 0.918\nsamples = 3\nvalue = [0, 2, 1]", fillcolor="#9cf2c0"] ;
220 -> 232 ;
233 [label="entropy = 0.0\nsamples = 1\nvalue = [0, 0, 1]", fillcolor="#8139e5"] ;
232 -> 233 ;
234 [label="entropy = 0.0\nsamples = 2\nvalue = [0, 2, 0]", fillcolor="#39e581"] ;
232 -> 234 ;
235 [label="entropy = 0.0\nsamples = 10\nvalue = [0, 0, 10]", fillcolor="#8139e5"] ;
219 -> 235 ;
236 [label="Horizontal quantile 1 <= 0.317\nentropy = 0.89\nsamples = 13\nvalue = [4, 0, 9]", fillcolor="#b991f1"] ;
218 -> 236 ;
237 [label="entropy = 0.0\nsamples = 5\nvalue = [0, 0, 5]", fillcolor="#8139e5"] ;
236 -> 237 ;
238 [label="Vertical quantile 1 <= 0.264\nentropy = 1.0\nsamples = 8\nvalue = [4, 0, 4]", fillcolor="#ffffff"] ;
236 -> 238 ;
239 [label="Horizontal quantile 1 <= 0.668\nentropy = 0.918\nsamples = 6\nvalue = [4, 0, 2]", fillcolor="#f2c09c"] ;
238 -> 239 ;
240 [label="Vertical quantile 1 <= 0.184\nentropy = 0.722\nsamples = 5\nvalue = [4, 0, 1]", fillcolor="#eca06a"] ;
239 -> 240 ;
241 [label="entropy = 0.0\nsamples = 1\nvalue = [0, 0, 1]", fillcolor="#8139e5"] ;
240 -> 241 ;
242 [label="entropy = 0.0\nsamples = 4\nvalue = [4, 0, 0]", fillcolor="#e58139"] ;
240 -> 242 ;
243 [label="entropy = 0.0\nsamples = 1\nvalue = [0, 0, 1]", fillcolor="#8139e5"] ;
239 -> 243 ;
244 [label="entropy = 0.0\nsamples = 2\nvalue = [0, 0, 2]", fillcolor="#8139e5"] ;
238 -> 244 ;
245 [label="entropy = 0.0\nsamples = 2\nvalue = [2, 0, 0]", fillcolor="#e58139"] ;
209 -> 245 ;
246 [label="entropy = 0.0\nsamples = 6\nvalue = [6, 0, 0]", fillcolor="#e58139"] ;
208 -> 246 ;
247 [label="Vertical quantile 1 <= 0.136\nentropy = 0.559\nsamples = 23\nvalue = [3, 0, 20]", fillcolor="#9457e9"] ;
207 -> 247 ;
248 [label="entropy = 0.0\nsamples = 1\nvalue = [1, 0, 0]", fillcolor="#e58139"] ;
247 -> 248 ;
249 [label="Vertical quantile 1 <= 0.198\nentropy = 0.439\nsamples = 22\nvalue = [2, 0, 20]", fillcolor="#8e4de8"] ;
247 -> 249 ;
250 [label="entropy = 0.0\nsamples = 11\nvalue = [0, 0, 11]", fillcolor="#8139e5"] ;
249 -> 250 ;
251 [label="Vertical quantile 1 <= 0.217\nentropy = 0.684\nsamples = 11\nvalue = [2, 0, 9]", fillcolor="#9d65eb"] ;
249 -> 251 ;
252 [label="Actions <= 16.0\nentropy = 0.918\nsamples = 3\nvalue = [2, 0, 1]", fillcolor="#f2c09c"] ;
251 -> 252 ;
253 [label="entropy = 0.0\nsamples = 2\nvalue = [2, 0, 0]", fillcolor="#e58139"] ;
252 -> 253 ;
254 [label="entropy = 0.0\nsamples = 1\nvalue = [0, 0, 1]", fillcolor="#8139e5"] ;
252 -> 254 ;
255 [label="entropy = 0.0\nsamples = 8\nvalue = [0, 0, 8]", fillcolor="#8139e5"] ;
251 -> 255 ;
256 [label="Incident <= 9.5\nentropy = 0.353\nsamples = 15\nvalue = [0, 1, 14]", fillcolor="#8a47e7"] ;
206 -> 256 ;
257 [label="entropy = 0.0\nsamples = 1\nvalue = [0, 1, 0]", fillcolor="#39e581"] ;
256 -> 257 ;
258 [label="entropy = 0.0\nsamples = 14\nvalue = [0, 0, 14]", fillcolor="#8139e5"] ;
256 -> 258 ;
259 [label="Horizontal quantile 1 <= 0.219\nentropy = 0.323\nsamples = 34\nvalue = [2, 0, 32]", fillcolor="#8945e7"] ;
205 -> 259 ;
260 [label="Actions <= 5.5\nentropy = 0.918\nsamples = 3\nvalue = [2, 0, 1]", fillcolor="#f2c09c"] ;
259 -> 260 ;
261 [label="entropy = 0.0\nsamples = 2\nvalue = [2, 0, 0]", fillcolor="#e58139"] ;
260 -> 261 ;
262 [label="entropy = 0.0\nsamples = 1\nvalue = [0, 0, 1]", fillcolor="#8139e5"] ;
260 -> 262 ;
263 [label="entropy = 0.0\nsamples = 31\nvalue = [0, 0, 31]", fillcolor="#8139e5"] ;
259 -> 263 ;
264 [label="Vertical quantile 1 <= 0.232\nentropy = 1.5\nsamples = 8\nvalue = [4, 2, 2]", fillcolor="#f6d5bd"] ;
150 -> 264 ;
265 [label="Vertical quantile 1 <= 0.184\nentropy = 1.0\nsamples = 4\nvalue = [0, 2, 2]", fillcolor="#ffffff"] ;
264 -> 265 ;
266 [label="entropy = 0.0\nsamples = 2\nvalue = [0, 2, 0]", fillcolor="#39e581"] ;
265 -> 266 ;
267 [label="entropy = 0.0\nsamples = 2\nvalue = [0, 0, 2]", fillcolor="#8139e5"] ;
265 -> 267 ;
268 [label="entropy = 0.0\nsamples = 4\nvalue = [4, 0, 0]", fillcolor="#e58139"] ;
264 -> 268 ;
269 [label="Horizontal quantile 1 <= 0.828\nentropy = 1.355\nsamples = 134\nvalue = [42, 16, 76]", fillcolor="#d0b6f5"] ;
99 -> 269 ;
270 [label="Form_template <= 0.5\nentropy = 0.855\nsamples = 25\nvalue = [18, 0, 7]", fillcolor="#efb286"] ;
269 -> 270 ;
271 [label="Horizontal quantile 1 <= 0.819\nentropy = 0.684\nsamples = 22\nvalue = [18, 0, 4]", fillcolor="#eb9d65"] ;
270 -> 271 ;
272 [label="Horizontal quantile 1 <= 0.816\nentropy = 0.985\nsamples = 7\nvalue = [4, 0, 3]", fillcolor="#f8e0ce"] ;
271 -> 272 ;
273 [label="Actions <= 2.0\nentropy = 0.918\nsamples = 6\nvalue = [4, 0, 2]", fillcolor="#f2c09c"] ;
272 -> 273 ;
274 [label="Users_norm_emp <= 0.5\nentropy = 0.918\nsamples = 3\nvalue = [1, 0, 2]", fillcolor="#c09cf2"] ;
273 -> 274 ;
275 [label="entropy = 0.0\nsamples = 2\nvalue = [0, 0, 2]", fillcolor="#8139e5"] ;
274 -> 275 ;
276 [label="entropy = 0.0\nsamples = 1\nvalue = [1, 0, 0]", fillcolor="#e58139"] ;
274 -> 276 ;
277 [label="entropy = 0.0\nsamples = 3\nvalue = [3, 0, 0]", fillcolor="#e58139"] ;
273 -> 277 ;
278 [label="entropy = 0.0\nsamples = 1\nvalue = [0, 0, 1]", fillcolor="#8139e5"] ;
272 -> 278 ;
279 [label="Users_norm_emp <= 9.5\nentropy = 0.353\nsamples = 15\nvalue = [14, 0, 1]", fillcolor="#e78a47"] ;
271 -> 279 ;
280 [label="Trend 1 <= -0.5\nentropy = 0.371\nsamples = 14\nvalue = [13, 0, 1]", fillcolor="#e78b48"] ;
279 -> 280 ;
281 [label="entropy = 0.0\nsamples = 1\nvalue = [1, 0, 0]", fillcolor="#e58139"] ;
280 -> 281 ;
282 [label="entropy = 0.391\nsamples = 13\nvalue = [12, 0, 1]", fillcolor="#e78c49"] ;
280 -> 282 ;
283 [label="entropy = 0.0\nsamples = 1\nvalue = [1, 0, 0]", fillcolor="#e58139"] ;
279 -> 283 ;
284 [label="entropy = 0.0\nsamples = 3\nvalue = [0, 0, 3]", fillcolor="#8139e5"] ;
270 -> 284 ;
285 [label="Horizontal quantile 1 <= 1.493\nentropy = 1.305\nsamples = 109\nvalue = [24, 16, 69]", fillcolor="#bc96f1"] ;
269 -> 285 ;
286 [label="Form_record <= 1.5\nentropy = 1.123\nsamples = 48\nvalue = [15, 2, 31]", fillcolor="#c29ff2"] ;
285 -> 286 ;
287 [label="Actions <= 2.5\nentropy = 1.429\nsamples = 15\nvalue = [7, 2, 6]", fillcolor="#fcf1e9"] ;
286 -> 287 ;
288 [label="entropy = 0.0\nsamples = 5\nvalue = [5, 0, 0]", fillcolor="#e58139"] ;
287 -> 288 ;
289 [label="Horizontal quantile 1 <= 0.91\nentropy = 1.371\nsamples = 10\nvalue = [2, 2, 6]", fillcolor="#c09cf2"] ;
287 -> 289 ;
290 [label="Users <= 3.5\nentropy = 1.224\nsamples = 9\nvalue = [1, 2, 6]", fillcolor="#b78ef0"] ;
289 -> 290 ;
291 [label="Assets <= 0.5\nentropy = 0.811\nsamples = 8\nvalue = [0, 2, 6]", fillcolor="#ab7bee"] ;
290 -> 291 ;
292 [label="Actions <= 4.0\nentropy = 0.592\nsamples = 7\nvalue = [0, 1, 6]", fillcolor="#965ae9"] ;
291 -> 292 ;
293 [label="Vertical quantile 1 <= 0.196\nentropy = 1.0\nsamples = 2\nvalue = [0, 1, 1]", fillcolor="#ffffff"] ;
292 -> 293 ;
294 [label="entropy = 0.0\nsamples = 1\nvalue = [0, 1, 0]", fillcolor="#39e581"] ;
293 -> 294 ;
295 [label="entropy = 0.0\nsamples = 1\nvalue = [0, 0, 1]", fillcolor="#8139e5"] ;
293 -> 295 ;
296 [label="entropy = 0.0\nsamples = 5\nvalue = [0, 0, 5]", fillcolor="#8139e5"] ;
292 -> 296 ;
297 [label="entropy = 0.0\nsamples = 1\nvalue = [0, 1, 0]", fillcolor="#39e581"] ;
291 -> 297 ;
298 [label="entropy = 0.0\nsamples = 1\nvalue = [1, 0, 0]", fillcolor="#e58139"] ;
290 -> 298 ;
299 [label="entropy = 0.0\nsamples = 1\nvalue = [1, 0, 0]", fillcolor="#e58139"] ;
289 -> 299 ;
300 [label="Horizontal quantile 1 <= 0.963\nentropy = 0.799\nsamples = 33\nvalue = [8, 0, 25]", fillcolor="#a978ed"] ;
286 -> 300 ;
301 [label="Vertical quantile 1 <= 0.266\nentropy = 0.709\nsamples = 31\nvalue = [6, 0, 25]", fillcolor="#9f69eb"] ;
300 -> 301 ;
302 [label="Actions <= 6.5\nentropy = 0.863\nsamples = 21\nvalue = [6, 0, 15]", fillcolor="#b388ef"] ;
301 -> 302 ;
303 [label="Actions <= 1.0\nentropy = 0.937\nsamples = 17\nvalue = [6, 0, 11]", fillcolor="#c6a5f3"] ;
302 -> 303 ;
304 [label="Vertical quantile 1 <= 0.24\nentropy = 0.75\nsamples = 14\nvalue = [3, 0, 11]", fillcolor="#a36fec"] ;
303 -> 304 ;
305 [label="entropy = 0.0\nsamples = 9\nvalue = [0, 0, 9]", fillcolor="#8139e5"] ;
304 -> 305 ;
306 [label="Vertical quantile 1 <= 0.25\nentropy = 0.971\nsamples = 5\nvalue = [3, 0, 2]", fillcolor="#f6d5bd"] ;
304 -> 306 ;
307 [label="entropy = 0.0\nsamples = 2\nvalue = [2, 0, 0]", fillcolor="#e58139"] ;
306 -> 307 ;
308 [label="Users_norm_emp <= 1.5\nentropy = 0.918\nsamples = 3\nvalue = [1, 0, 2]", fillcolor="#c09cf2"] ;
306 -> 308 ;
309 [label="entropy = 0.0\nsamples = 2\nvalue = [0, 0, 2]", fillcolor="#8139e5"] ;
308 -> 309 ;
310 [label="entropy = 0.0\nsamples = 1\nvalue = [1, 0, 0]", fillcolor="#e58139"] ;
308 -> 310 ;
311 [label="entropy = 0.0\nsamples = 3\nvalue = [3, 0, 0]", fillcolor="#e58139"] ;
303 -> 311 ;
312 [label="entropy = 0.0\nsamples = 4\nvalue = [0, 0, 4]", fillcolor="#8139e5"] ;
302 -> 312 ;
313 [label="entropy = 0.0\nsamples = 10\nvalue = [0, 0, 10]", fillcolor="#8139e5"] ;
301 -> 313 ;
314 [label="entropy = 0.0\nsamples = 2\nvalue = [2, 0, 0]", fillcolor="#e58139"] ;
300 -> 314 ;
315 [label="Users_norm_emp <= 2.5\nentropy = 1.32\nsamples = 61\nvalue = [9, 14, 38]", fillcolor="#bf9af2"] ;
285 -> 315 ;
316 [label="Form_template <= 0.5\nentropy = 1.179\nsamples = 51\nvalue = [5, 11, 35]", fillcolor="#b388ef"] ;
315 -> 316 ;
317 [label="Users_norm_emp <= 0.5\nentropy = 1.298\nsamples = 38\nvalue = [4, 11, 23]", fillcolor="#c7a7f3"] ;
316 -> 317 ;
318 [label="Incident <= 3.5\nentropy = 1.383\nsamples = 31\nvalue = [4, 10, 17]", fillcolor="#d5bdf6"] ;
317 -> 318 ;
319 [label="Actions <= 4.5\nentropy = 1.416\nsamples = 29\nvalue = [4, 10, 15]", fillcolor="#decbf8"] ;
318 -> 319 ;
320 [label="Actions <= 0.5\nentropy = 1.399\nsamples = 27\nvalue = [4, 8, 15]", fillcolor="#d1b6f5"] ;
319 -> 320 ;
321 [label="Form_record <= 1.5\nentropy = 1.233\nsamples = 18\nvalue = [1, 7, 10]", fillcolor="#ddc9f8"] ;
320 -> 321 ;
322 [label="entropy = 0.881\nsamples = 10\nvalue = [0, 3, 7]", fillcolor="#b78ef0"] ;
321 -> 322 ;
323 [label="Incident <= 0.5\nentropy = 1.406\nsamples = 8\nvalue = [1, 4, 3]", fillcolor="#d7fae6"] ;
321 -> 323 ;
324 [label="Form_record <= 2.5\nentropy = 1.379\nsamples = 7\nvalue = [1, 4, 2]", fillcolor="#b0f5cd"] ;
323 -> 324 ;
325 [label="entropy = 1.5\nsamples = 4\nvalue = [1, 2, 1]", fillcolor="#bdf6d5"] ;
324 -> 325 ;
326 [label="entropy = 0.918\nsamples = 3\nvalue = [0, 2, 1]", fillcolor="#9cf2c0"] ;
324 -> 326 ;
327 [label="entropy = 0.0\nsamples = 1\nvalue = [0, 0, 1]", fillcolor="#8139e5"] ;
323 -> 327 ;
328 [label="Incident <= 1.5\nentropy = 1.352\nsamples = 9\nvalue = [3, 1, 5]", fillcolor="#d5bdf6"] ;
320 -> 328 ;
329 [label="Incident <= 0.5\nentropy = 0.985\nsamples = 7\nvalue = [3, 0, 4]", fillcolor="#e0cef8"] ;
328 -> 329 ;
330 [label="Actions <= 2.0\nentropy = 0.918\nsamples = 6\nvalue = [2, 0, 4]", fillcolor="#c09cf2"] ;
329 -> 330 ;
331 [label="Form_record <= 1.5\nentropy = 1.0\nsamples = 4\nvalue = [2, 0, 2]", fillcolor="#ffffff"] ;
330 -> 331 ;
332 [label="entropy = 0.0\nsamples = 1\nvalue = [0, 0, 1]", fillcolor="#8139e5"] ;
331 -> 332 ;
333 [label="Form_record <= 2.5\nentropy = 0.918\nsamples = 3\nvalue = [2, 0, 1]", fillcolor="#f2c09c"] ;
331 -> 333 ;
334 [label="entropy = 0.0\nsamples = 1\nvalue = [1, 0, 0]", fillcolor="#e58139"] ;
333 -> 334 ;
335 [label="entropy = 1.0\nsamples = 2\nvalue = [1, 0, 1]", fillcolor="#ffffff"] ;
333 -> 335 ;
336 [label="entropy = 0.0\nsamples = 2\nvalue = [0, 0, 2]", fillcolor="#8139e5"] ;
330 -> 336 ;
337 [label="entropy = 0.0\nsamples = 1\nvalue = [1, 0, 0]", fillcolor="#e58139"] ;
329 -> 337 ;
338 [label="Actions <= 1.5\nentropy = 1.0\nsamples = 2\nvalue = [0, 1, 1]", fillcolor="#ffffff"] ;
328 -> 338 ;
339 [label="entropy = 0.0\nsamples = 1\nvalue = [0, 0, 1]", fillcolor="#8139e5"] ;
338 -> 339 ;
340 [label="entropy = 0.0\nsamples = 1\nvalue = [0, 1, 0]", fillcolor="#39e581"] ;
338 -> 340 ;
341 [label="entropy = 0.0\nsamples = 2\nvalue = [0, 2, 0]", fillcolor="#39e581"] ;
319 -> 341 ;
342 [label="entropy = 0.0\nsamples = 2\nvalue = [0, 0, 2]", fillcolor="#8139e5"] ;
318 -> 342 ;
343 [label="Incident <= 3.5\nentropy = 0.592\nsamples = 7\nvalue = [0, 1, 6]", fillcolor="#965ae9"] ;
317 -> 343 ;
344 [label="entropy = 0.0\nsamples = 4\nvalue = [0, 0, 4]", fillcolor="#8139e5"] ;
343 -> 344 ;
345 [label="Form_record <= 1.5\nentropy = 0.918\nsamples = 3\nvalue = [0, 1, 2]", fillcolor="#c09cf2"] ;
343 -> 345 ;
346 [label="entropy = 0.0\nsamples = 1\nvalue = [0, 1, 0]", fillcolor="#39e581"] ;
345 -> 346 ;
347 [label="entropy = 0.0\nsamples = 2\nvalue = [0, 0, 2]", fillcolor="#8139e5"] ;
345 -> 347 ;
348 [label="Form_template <= 10.0\nentropy = 0.391\nsamples = 13\nvalue = [1, 0, 12]", fillcolor="#8c49e7"] ;
316 -> 348 ;
349 [label="entropy = 0.0\nsamples = 12\nvalue = [0, 0, 12]", fillcolor="#8139e5"] ;
348 -> 349 ;
350 [label="entropy = 0.0\nsamples = 1\nvalue = [1, 0, 0]", fillcolor="#e58139"] ;
348 -> 350 ;
351 [label="Users <= 17.5\nentropy = 1.571\nsamples = 10\nvalue = [4, 3, 3]", fillcolor="#fbede3"] ;
315 -> 351 ;
352 [label="Assets <= 1.0\nentropy = 0.985\nsamples = 7\nvalue = [4, 3, 0]", fillcolor="#f8e0ce"] ;
351 -> 352 ;
353 [label="Users_norm_emp <= 14.5\nentropy = 0.971\nsamples = 5\nvalue = [2, 3, 0]", fillcolor="#bdf6d5"] ;
352 -> 353 ;
354 [label="Users_norm_emp <= 7.0\nentropy = 0.811\nsamples = 4\nvalue = [1, 3, 0]", fillcolor="#7beeab"] ;
353 -> 354 ;
355 [label="Users_norm_emp <= 3.5\nentropy = 1.0\nsamples = 2\nvalue = [1, 1, 0]", fillcolor="#ffffff"] ;
354 -> 355 ;
356 [label="entropy = 0.0\nsamples = 1\nvalue = [0, 1, 0]", fillcolor="#39e581"] ;
355 -> 356 ;
357 [label="entropy = 0.0\nsamples = 1\nvalue = [1, 0, 0]", fillcolor="#e58139"] ;
355 -> 357 ;
358 [label="entropy = 0.0\nsamples = 2\nvalue = [0, 2, 0]", fillcolor="#39e581"] ;
354 -> 358 ;
359 [label="entropy = 0.0\nsamples = 1\nvalue = [1, 0, 0]", fillcolor="#e58139"] ;
353 -> 359 ;
360 [label="entropy = 0.0\nsamples = 2\nvalue = [2, 0, 0]", fillcolor="#e58139"] ;
352 -> 360 ;
361 [label="entropy = 0.0\nsamples = 3\nvalue = [0, 0, 3]", fillcolor="#8139e5"] ;
351 -> 361 ;
362 [label="Competency <= 2.5\nentropy = 1.105\nsamples = 617\nvalue = [67, 100, 450]", fillcolor="#aa79ed"] ;
16 -> 362 ;
363 [label="Horizontal quantile 1 <= 0.366\nentropy = 1.364\nsamples = 201\nvalue = [27, 58, 116]", fillcolor="#ccaff4"] ;
362 -> 363 ;
364 [label="Form_record <= 0.5\nentropy = 1.11\nsamples = 96\nvalue = [3, 33, 60]", fillcolor="#c9aaf4"] ;
363 -> 364 ;
365 [label="Horizontal quantile 1 <= 0.098\nentropy = 1.176\nsamples = 78\nvalue = [3, 31, 44]", fillcolor="#dcc8f8"] ;
364 -> 365 ;
366 [label="Horizontal quantile 1 <= 0.059\nentropy = 1.256\nsamples = 30\nvalue = [2, 17, 11]", fillcolor="#c0f7d7"] ;
365 -> 366 ;
367 [label="Vertical quantile 1 <= 0.208\nentropy = 0.896\nsamples = 16\nvalue = [0, 11, 5]", fillcolor="#93f1ba"] ;
366 -> 367 ;
368 [label="Vertical quantile 1 <= 0.183\nentropy = 0.985\nsamples = 7\nvalue = [0, 3, 4]", fillcolor="#e0cef8"] ;
367 -> 368 ;
369 [label="Actions <= 54.0\nentropy = 0.811\nsamples = 4\nvalue = [0, 3, 1]", fillcolor="#7beeab"] ;
368 -> 369 ;
370 [label="entropy = 0.0\nsamples = 3\nvalue = [0, 3, 0]", fillcolor="#39e581"] ;
369 -> 370 ;
371 [label="entropy = 0.0\nsamples = 1\nvalue = [0, 0, 1]", fillcolor="#8139e5"] ;
369 -> 371 ;
372 [label="entropy = 0.0\nsamples = 3\nvalue = [0, 0, 3]", fillcolor="#8139e5"] ;
368 -> 372 ;
373 [label="Incident <= 2.0\nentropy = 0.503\nsamples = 9\nvalue = [0, 8, 1]", fillcolor="#52e891"] ;
367 -> 373 ;
374 [label="entropy = 0.0\nsamples = 8\nvalue = [0, 8, 0]", fillcolor="#39e581"] ;
373 -> 374 ;
375 [label="entropy = 0.0\nsamples = 1\nvalue = [0, 0, 1]", fillcolor="#8139e5"] ;
373 -> 375 ;
376 [label="Horizontal quantile 1 <= 0.066\nentropy = 1.449\nsamples = 14\nvalue = [2, 6, 6]", fillcolor="#ffffff"] ;
366 -> 376 ;
377 [label="Competency <= 1.5\nentropy = 1.0\nsamples = 4\nvalue = [2, 0, 2]", fillcolor="#ffffff"] ;
376 -> 377 ;
378 [label="entropy = 0.0\nsamples = 2\nvalue = [2, 0, 0]", fillcolor="#e58139"] ;
377 -> 378 ;
379 [label="entropy = 0.0\nsamples = 2\nvalue = [0, 0, 2]", fillcolor="#8139e5"] ;
377 -> 379 ;
380 [label="Vertical quantile 1 <= 0.202\nentropy = 0.971\nsamples = 10\nvalue = [0, 6, 4]", fillcolor="#bdf6d5"] ;
376 -> 380 ;
381 [label="entropy = 0.0\nsamples = 4\nvalue = [0, 4, 0]", fillcolor="#39e581"] ;
380 -> 381 ;
382 [label="Users_norm_emp <= 1.5\nentropy = 0.918\nsamples = 6\nvalue = [0, 2, 4]", fillcolor="#c09cf2"] ;
380 -> 382 ;
383 [label="Horizontal quantile 1 <= 0.072\nentropy = 0.722\nsamples = 5\nvalue = [0, 1, 4]", fillcolor="#a06aec"] ;
382 -> 383 ;
384 [label="entropy = 0.0\nsamples = 1\nvalue = [0, 1, 0]", fillcolor="#39e581"] ;
383 -> 384 ;
385 [label="entropy = 0.0\nsamples = 4\nvalue = [0, 0, 4]", fillcolor="#8139e5"] ;
383 -> 385 ;
386 [label="entropy = 0.0\nsamples = 1\nvalue = [0, 1, 0]", fillcolor="#39e581"] ;
382 -> 386 ;
387 [label="Incident <= 8.0\nentropy = 1.006\nsamples = 48\nvalue = [1, 14, 33]", fillcolor="#b990f0"] ;
365 -> 387 ;
388 [label="Horizontal quantile 1 <= 0.235\nentropy = 0.859\nsamples = 46\nvalue = [0, 13, 33]", fillcolor="#b387ef"] ;
387 -> 388 ;
389 [label="Horizontal quantile 1 <= 0.127\nentropy = 0.575\nsamples = 22\nvalue = [0, 3, 19]", fillcolor="#9558e9"] ;
388 -> 389 ;
390 [label="Competency <= 1.5\nentropy = 0.918\nsamples = 9\nvalue = [0, 3, 6]", fillcolor="#c09cf2"] ;
389 -> 390 ;
391 [label="entropy = 0.0\nsamples = 3\nvalue = [0, 0, 3]", fillcolor="#8139e5"] ;
390 -> 391 ;
392 [label="Actions <= 117.0\nentropy = 1.0\nsamples = 6\nvalue = [0, 3, 3]", fillcolor="#ffffff"] ;
390 -> 392 ;
393 [label="Vertical quantile 1 <= 0.19\nentropy = 0.971\nsamples = 5\nvalue = [0, 3, 2]", fillcolor="#bdf6d5"] ;
392 -> 393 ;
394 [label="entropy = 0.0\nsamples = 2\nvalue = [0, 2, 0]", fillcolor="#39e581"] ;
393 -> 394 ;
395 [label="Horizontal quantile 1 <= 0.117\nentropy = 0.918\nsamples = 3\nvalue = [0, 1, 2]", fillcolor="#c09cf2"] ;
393 -> 395 ;
396 [label="entropy = 0.0\nsamples = 1\nvalue = [0, 1, 0]", fillcolor="#39e581"] ;
395 -> 396 ;
397 [label="entropy = 0.0\nsamples = 2\nvalue = [0, 0, 2]", fillcolor="#8139e5"] ;
395 -> 397 ;
398 [label="entropy = 0.0\nsamples = 1\nvalue = [0, 0, 1]", fillcolor="#8139e5"] ;
392 -> 398 ;
399 [label="entropy = 0.0\nsamples = 13\nvalue = [0, 0, 13]", fillcolor="#8139e5"] ;
389 -> 399 ;
400 [label="Horizontal quantile 1 <= 0.288\nentropy = 0.98\nsamples = 24\nvalue = [0, 10, 14]", fillcolor="#dbc6f8"] ;
388 -> 400 ;
401 [label="Users_norm_emp <= 0.5\nentropy = 0.961\nsamples = 13\nvalue = [0, 8, 5]", fillcolor="#b5f5d0"] ;
400 -> 401 ;
402 [label="Vertical quantile 1 <= 0.241\nentropy = 0.845\nsamples = 11\nvalue = [0, 8, 3]", fillcolor="#83efb0"] ;
401 -> 402 ;
403 [label="Horizontal quantile 1 <= 0.276\nentropy = 0.592\nsamples = 7\nvalue = [0, 6, 1]", fillcolor="#5ae996"] ;
402 -> 403 ;
404 [label="entropy = 0.0\nsamples = 6\nvalue = [0, 6, 0]", fillcolor="#39e581"] ;
403 -> 404 ;
405 [label="entropy = 0.0\nsamples = 1\nvalue = [0, 0, 1]", fillcolor="#8139e5"] ;
403 -> 405 ;
406 [label="Competency <= 1.5\nentropy = 1.0\nsamples = 4\nvalue = [0, 2, 2]", fillcolor="#ffffff"] ;
402 -> 406 ;
407 [label="Vertical quantile 1 <= 0.379\nentropy = 0.918\nsamples = 3\nvalue = [0, 1, 2]", fillcolor="#c09cf2"] ;
406 -> 407 ;
408 [label="entropy = 0.0\nsamples = 2\nvalue = [0, 0, 2]", fillcolor="#8139e5"] ;
407 -> 408 ;
409 [label="entropy = 0.0\nsamples = 1\nvalue = [0, 1, 0]", fillcolor="#39e581"] ;
407 -> 409 ;
410 [label="entropy = 0.0\nsamples = 1\nvalue = [0, 1, 0]", fillcolor="#39e581"] ;
406 -> 410 ;
411 [label="entropy = 0.0\nsamples = 2\nvalue = [0, 0, 2]", fillcolor="#8139e5"] ;
401 -> 411 ;
412 [label="Actions <= 2.5\nentropy = 0.684\nsamples = 11\nvalue = [0, 2, 9]", fillcolor="#9d65eb"] ;
400 -> 412 ;
413 [label="entropy = 0.0\nsamples = 8\nvalue = [0, 0, 8]", fillcolor="#8139e5"] ;
412 -> 413 ;
414 [label="Incident <= 1.0\nentropy = 0.918\nsamples = 3\nvalue = [0, 2, 1]", fillcolor="#9cf2c0"] ;
412 -> 414 ;
415 [label="entropy = 0.0\nsamples = 2\nvalue = [0, 2, 0]", fillcolor="#39e581"] ;
414 -> 415 ;
416 [label="entropy = 0.0\nsamples = 1\nvalue = [0, 0, 1]", fillcolor="#8139e5"] ;
414 -> 416 ;
417 [label="Competency <= 1.5\nentropy = 1.0\nsamples = 2\nvalue = [1, 1, 0]", fillcolor="#ffffff"] ;
387 -> 417 ;
418 [label="entropy = 0.0\nsamples = 1\nvalue = [1, 0, 0]", fillcolor="#e58139"] ;
417 -> 418 ;
419 [label="entropy = 0.0\nsamples = 1\nvalue = [0, 1, 0]", fillcolor="#39e581"] ;
417 -> 419 ;
420 [label="Vertical quantile 1 <= 0.473\nentropy = 0.503\nsamples = 18\nvalue = [0, 2, 16]", fillcolor="#9152e8"] ;
364 -> 420 ;
421 [label="Users_norm_emp <= 1.5\nentropy = 0.323\nsamples = 17\nvalue = [0, 1, 16]", fillcolor="#8945e7"] ;
420 -> 421 ;
422 [label="entropy = 0.0\nsamples = 14\nvalue = [0, 0, 14]", fillcolor="#8139e5"] ;
421 -> 422 ;
423 [label="Form_record <= 2.0\nentropy = 0.918\nsamples = 3\nvalue = [0, 1, 2]", fillcolor="#c09cf2"] ;
421 -> 423 ;
424 [label="entropy = 0.0\nsamples = 2\nvalue = [0, 0, 2]", fillcolor="#8139e5"] ;
423 -> 424 ;
425 [label="entropy = 0.0\nsamples = 1\nvalue = [0, 1, 0]", fillcolor="#39e581"] ;
423 -> 425 ;
426 [label="entropy = 0.0\nsamples = 1\nvalue = [0, 1, 0]", fillcolor="#39e581"] ;
420 -> 426 ;
427 [label="Horizontal quantile 1 <= 1.493\nentropy = 1.463\nsamples = 105\nvalue = [24, 25, 56]", fillcolor="#ceb2f5"] ;
363 -> 427 ;
428 [label="Actions <= 12.5\nentropy = 1.406\nsamples = 75\nvalue = [21, 12, 42]", fillcolor="#ceb2f5"] ;
427 -> 428 ;
429 [label="Vertical quantile 1 <= 0.263\nentropy = 1.353\nsamples = 69\nvalue = [15, 12, 42]", fillcolor="#c09cf2"] ;
428 -> 429 ;
430 [label="Vertical quantile 1 <= 0.237\nentropy = 1.424\nsamples = 43\nvalue = [8, 11, 24]", fillcolor="#ccaff4"] ;
429 -> 430 ;
431 [label="Vertical quantile 1 <= 0.212\nentropy = 1.303\nsamples = 36\nvalue = [6, 7, 23]", fillcolor="#b992f1"] ;
430 -> 431 ;
432 [label="Vertical quantile 1 <= 0.183\nentropy = 1.359\nsamples = 25\nvalue = [6, 4, 15]", fillcolor="#c3a1f3"] ;
431 -> 432 ;
433 [label="Vertical quantile 1 <= 0.174\nentropy = 1.379\nsamples = 14\nvalue = [2, 4, 8]", fillcolor="#cdb0f5"] ;
432 -> 433 ;
434 [label="Vertical quantile 1 <= 0.152\nentropy = 1.252\nsamples = 12\nvalue = [2, 2, 8]", fillcolor="#b388ef"] ;
433 -> 434 ;
435 [label="Incident <= 0.5\nentropy = 1.0\nsamples = 2\nvalue = [1, 1, 0]", fillcolor="#ffffff"] ;
434 -> 435 ;
436 [label="entropy = 0.0\nsamples = 1\nvalue = [1, 0, 0]", fillcolor="#e58139"] ;
435 -> 436 ;
437 [label="entropy = 0.0\nsamples = 1\nvalue = [0, 1, 0]", fillcolor="#39e581"] ;
435 -> 437 ;
438 [label="Users_norm_emp <= 2.0\nentropy = 0.922\nsamples = 10\nvalue = [1, 1, 8]", fillcolor="#9d65eb"] ;
434 -> 438 ;
439 [label="Vertical quantile 1 <= 0.169\nentropy = 0.544\nsamples = 8\nvalue = [0, 1, 7]", fillcolor="#9355e9"] ;
438 -> 439 ;
440 [label="entropy = 0.0\nsamples = 5\nvalue = [0, 0, 5]", fillcolor="#8139e5"] ;
439 -> 440 ;
441 [label="Vertical quantile 1 <= 0.169\nentropy = 0.918\nsamples = 3\nvalue = [0, 1, 2]", fillcolor="#c09cf2"] ;
439 -> 441 ;
442 [label="entropy = 0.0\nsamples = 1\nvalue = [0, 1, 0]", fillcolor="#39e581"] ;
441 -> 442 ;
443 [label="entropy = 0.0\nsamples = 2\nvalue = [0, 0, 2]", fillcolor="#8139e5"] ;
441 -> 443 ;
444 [label="Users_norm_emp <= 3.5\nentropy = 1.0\nsamples = 2\nvalue = [1, 0, 1]", fillcolor="#ffffff"] ;
438 -> 444 ;
445 [label="entropy = 0.0\nsamples = 1\nvalue = [1, 0, 0]", fillcolor="#e58139"] ;
444 -> 445 ;
446 [label="entropy = 0.0\nsamples = 1\nvalue = [0, 0, 1]", fillcolor="#8139e5"] ;
444 -> 446 ;
447 [label="entropy = 0.0\nsamples = 2\nvalue = [0, 2, 0]", fillcolor="#39e581"] ;
433 -> 447 ;
448 [label="Vertical quantile 1 <= 0.2\nentropy = 0.946\nsamples = 11\nvalue = [4, 0, 7]", fillcolor="#c9aaf4"] ;
432 -> 448 ;
449 [label="Vertical quantile 1 <= 0.187\nentropy = 0.65\nsamples = 6\nvalue = [1, 0, 5]", fillcolor="#9a61ea"] ;
448 -> 449 ;
450 [label="entropy = 0.0\nsamples = 1\nvalue = [1, 0, 0]", fillcolor="#e58139"] ;
449 -> 450 ;
451 [label="entropy = 0.0\nsamples = 5\nvalue = [0, 0, 5]", fillcolor="#8139e5"] ;
449 -> 451 ;
452 [label="Horizontal quantile 1 <= 0.753\nentropy = 0.971\nsamples = 5\nvalue = [3, 0, 2]", fillcolor="#f6d5bd"] ;
448 -> 452 ;
453 [label="Horizontal quantile 1 <= 0.58\nentropy = 0.918\nsamples = 3\nvalue = [1, 0, 2]", fillcolor="#c09cf2"] ;
452 -> 453 ;
454 [label="entropy = 0.0\nsamples = 1\nvalue = [1, 0, 0]", fillcolor="#e58139"] ;
453 -> 454 ;
455 [label="entropy = 0.0\nsamples = 2\nvalue = [0, 0, 2]", fillcolor="#8139e5"] ;
453 -> 455 ;
456 [label="entropy = 0.0\nsamples = 2\nvalue = [2, 0, 0]", fillcolor="#e58139"] ;
452 -> 456 ;
457 [label="Horizontal quantile 1 <= 0.489\nentropy = 0.845\nsamples = 11\nvalue = [0, 3, 8]", fillcolor="#b083ef"] ;
431 -> 457 ;
458 [label="entropy = 0.0\nsamples = 4\nvalue = [0, 0, 4]", fillcolor="#8139e5"] ;
457 -> 458 ;
459 [label="Vertical quantile 1 <= 0.22\nentropy = 0.985\nsamples = 7\nvalue = [0, 3, 4]", fillcolor="#e0cef8"] ;
457 -> 459 ;
460 [label="entropy = 0.0\nsamples = 2\nvalue = [0, 2, 0]", fillcolor="#39e581"] ;
459 -> 460 ;
461 [label="Horizontal quantile 1 <= 0.55\nentropy = 0.722\nsamples = 5\nvalue = [0, 1, 4]", fillcolor="#a06aec"] ;
459 -> 461 ;
462 [label="entropy = 0.0\nsamples = 1\nvalue = [0, 1, 0]", fillcolor="#39e581"] ;
461 -> 462 ;
463 [label="entropy = 0.0\nsamples = 4\nvalue = [0, 0, 4]", fillcolor="#8139e5"] ;
461 -> 463 ;
464 [label="Form_record <= 0.5\nentropy = 1.379\nsamples = 7\nvalue = [2, 4, 1]", fillcolor="#b0f5cd"] ;
430 -> 464 ;
465 [label="Users <= 13.5\nentropy = 0.918\nsamples = 6\nvalue = [2, 4, 0]", fillcolor="#9cf2c0"] ;
464 -> 465 ;
466 [label="Assets <= 0.5\nentropy = 0.722\nsamples = 5\nvalue = [1, 4, 0]", fillcolor="#6aeca0"] ;
465 -> 466 ;
467 [label="entropy = 0.0\nsamples = 3\nvalue = [0, 3, 0]", fillcolor="#39e581"] ;
466 -> 467 ;
468 [label="Assets <= 1.5\nentropy = 1.0\nsamples = 2\nvalue = [1, 1, 0]", fillcolor="#ffffff"] ;
466 -> 468 ;
469 [label="entropy = 0.0\nsamples = 1\nvalue = [1, 0, 0]", fillcolor="#e58139"] ;
468 -> 469 ;
470 [label="entropy = 0.0\nsamples = 1\nvalue = [0, 1, 0]", fillcolor="#39e581"] ;
468 -> 470 ;
471 [label="entropy = 0.0\nsamples = 1\nvalue = [1, 0, 0]", fillcolor="#e58139"] ;
465 -> 471 ;
472 [label="entropy = 0.0\nsamples = 1\nvalue = [0, 0, 1]", fillcolor="#8139e5"] ;
464 -> 472 ;
473 [label="Users <= 0.5\nentropy = 1.058\nsamples = 26\nvalue = [7, 1, 18]", fillcolor="#b68cf0"] ;
429 -> 473 ;
474 [label="Competency <= 1.5\nentropy = 0.735\nsamples = 14\nvalue = [1, 1, 12]", fillcolor="#9457e9"] ;
473 -> 474 ;
475 [label="Horizontal quantile 1 <= 0.609\nentropy = 1.5\nsamples = 4\nvalue = [1, 1, 2]", fillcolor="#d5bdf6"] ;
474 -> 475 ;
476 [label="entropy = 0.0\nsamples = 2\nvalue = [0, 0, 2]", fillcolor="#8139e5"] ;
475 -> 476 ;
477 [label="Vertical quantile 1 <= 0.325\nentropy = 1.0\nsamples = 2\nvalue = [1, 1, 0]", fillcolor="#ffffff"] ;
475 -> 477 ;
478 [label="entropy = 0.0\nsamples = 1\nvalue = [1, 0, 0]", fillcolor="#e58139"] ;
477 -> 478 ;
479 [label="entropy = 0.0\nsamples = 1\nvalue = [0, 1, 0]", fillcolor="#39e581"] ;
477 -> 479 ;
480 [label="entropy = 0.0\nsamples = 10\nvalue = [0, 0, 10]", fillcolor="#8139e5"] ;
474 -> 480 ;
481 [label="Horizontal quantile 1 <= 0.676\nentropy = 1.0\nsamples = 12\nvalue = [6, 0, 6]", fillcolor="#ffffff"] ;
473 -> 481 ;
482 [label="Vertical quantile 1 <= 0.282\nentropy = 0.811\nsamples = 8\nvalue = [6, 0, 2]", fillcolor="#eeab7b"] ;
481 -> 482 ;
483 [label="entropy = 0.0\nsamples = 2\nvalue = [0, 0, 2]", fillcolor="#8139e5"] ;
482 -> 483 ;
484 [label="entropy = 0.0\nsamples = 6\nvalue = [6, 0, 0]", fillcolor="#e58139"] ;
482 -> 484 ;
485 [label="entropy = 0.0\nsamples = 4\nvalue = [0, 0, 4]", fillcolor="#8139e5"] ;
481 -> 485 ;
486 [label="entropy = 0.0\nsamples = 6\nvalue = [6, 0, 0]", fillcolor="#e58139"] ;
428 -> 486 ;
487 [label="Users <= 2.5\nentropy = 1.368\nsamples = 30\nvalue = [3, 13, 14]", fillcolor="#f8f3fd"] ;
427 -> 487 ;
488 [label="Form_record <= 0.5\nentropy = 1.441\nsamples = 20\nvalue = [3, 10, 7]", fillcolor="#d1f9e2"] ;
487 -> 488 ;
489 [label="Users_norm_emp <= 0.5\nentropy = 1.14\nsamples = 13\nvalue = [1, 9, 3]", fillcolor="#88efb3"] ;
488 -> 489 ;
490 [label="Users_induction <= 1.5\nentropy = 1.406\nsamples = 8\nvalue = [1, 4, 3]", fillcolor="#d7fae6"] ;
489 -> 490 ;
491 [label="Users_induction <= 0.5\nentropy = 1.449\nsamples = 7\nvalue = [1, 3, 3]", fillcolor="#ffffff"] ;
490 -> 491 ;
492 [label="Incident <= 1.0\nentropy = 1.459\nsamples = 6\nvalue = [1, 3, 2]", fillcolor="#cef8e0"] ;
491 -> 492 ;
493 [label="entropy = 1.522\nsamples = 5\nvalue = [1, 2, 2]", fillcolor="#ffffff"] ;
492 -> 493 ;
494 [label="entropy = 0.0\nsamples = 1\nvalue = [0, 1, 0]", fillcolor="#39e581"] ;
492 -> 494 ;
495 [label="entropy = 0.0\nsamples = 1\nvalue = [0, 0, 1]", fillcolor="#8139e5"] ;
491 -> 495 ;
496 [label="entropy = 0.0\nsamples = 1\nvalue = [0, 1, 0]", fillcolor="#39e581"] ;
490 -> 496 ;
497 [label="entropy = 0.0\nsamples = 5\nvalue = [0, 5, 0]", fillcolor="#39e581"] ;
489 -> 497 ;
498 [label="Users_norm_emp <= 0.5\nentropy = 1.379\nsamples = 7\nvalue = [2, 1, 4]", fillcolor="#cdb0f5"] ;
488 -> 498 ;
499 [label="Incident <= 0.5\nentropy = 0.811\nsamples = 4\nvalue = [0, 1, 3]", fillcolor="#ab7bee"] ;
498 -> 499 ;
500 [label="entropy = 0.0\nsamples = 2\nvalue = [0, 0, 2]", fillcolor="#8139e5"] ;
499 -> 500 ;
501 [label="Form_record <= 2.0\nentropy = 1.0\nsamples = 2\nvalue = [0, 1, 1]", fillcolor="#ffffff"] ;
499 -> 501 ;
502 [label="entropy = 0.0\nsamples = 1\nvalue = [0, 0, 1]", fillcolor="#8139e5"] ;
501 -> 502 ;
503 [label="entropy = 0.0\nsamples = 1\nvalue = [0, 1, 0]", fillcolor="#39e581"] ;
501 -> 503 ;
504 [label="Incident <= 0.5\nentropy = 0.918\nsamples = 3\nvalue = [2, 0, 1]", fillcolor="#f2c09c"] ;
498 -> 504 ;
505 [label="entropy = 0.0\nsamples = 2\nvalue = [2, 0, 0]", fillcolor="#e58139"] ;
504 -> 505 ;
506 [label="entropy = 0.0\nsamples = 1\nvalue = [0, 0, 1]", fillcolor="#8139e5"] ;
504 -> 506 ;
507 [label="Actions <= 0.5\nentropy = 0.881\nsamples = 10\nvalue = [0, 3, 7]", fillcolor="#b78ef0"] ;
487 -> 507 ;
508 [label="Users_norm_emp <= 5.5\nentropy = 1.0\nsamples = 6\nvalue = [0, 3, 3]", fillcolor="#ffffff"] ;
507 -> 508 ;
509 [label="entropy = 0.0\nsamples = 2\nvalue = [0, 0, 2]", fillcolor="#8139e5"] ;
508 -> 509 ;
510 [label="Users_norm_emp <= 9.5\nentropy = 0.811\nsamples = 4\nvalue = [0, 3, 1]", fillcolor="#7beeab"] ;
508 -> 510 ;
511 [label="Users_norm_emp <= 7.0\nentropy = 1.0\nsamples = 2\nvalue = [0, 1, 1]", fillcolor="#ffffff"] ;
510 -> 511 ;
512 [label="entropy = 0.0\nsamples = 1\nvalue = [0, 1, 0]", fillcolor="#39e581"] ;
511 -> 512 ;
513 [label="entropy = 0.0\nsamples = 1\nvalue = [0, 0, 1]", fillcolor="#8139e5"] ;
511 -> 513 ;
514 [label="entropy = 0.0\nsamples = 2\nvalue = [0, 2, 0]", fillcolor="#39e581"] ;
510 -> 514 ;
515 [label="entropy = 0.0\nsamples = 4\nvalue = [0, 0, 4]", fillcolor="#8139e5"] ;
507 -> 515 ;
516 [label="Actions <= 0.5\nentropy = 0.913\nsamples = 416\nvalue = [40, 42, 334]", fillcolor="#9d64eb"] ;
362 -> 516 ;
517 [label="Vertical quantile 1 <= 0.583\nentropy = 0.849\nsamples = 293\nvalue = [18, 35, 240]", fillcolor="#9b62ea"] ;
516 -> 517 ;
518 [label="Competency <= 7.5\nentropy = 0.804\nsamples = 268\nvalue = [18, 26, 224]", fillcolor="#985dea"] ;
517 -> 518 ;
519 [label="Incident <= 0.5\nentropy = 1.019\nsamples = 144\nvalue = [14, 20, 110]", fillcolor="#a46fec"] ;
518 -> 519 ;
520 [label="Horizontal quantile 1 <= 0.419\nentropy = 0.975\nsamples = 139\nvalue = [11, 20, 108]", fillcolor="#a26dec"] ;
519 -> 520 ;
521 [label="Vertical quantile 1 <= 0.157\nentropy = 0.761\nsamples = 97\nvalue = [3, 13, 81]", fillcolor="#995fea"] ;
520 -> 521 ;
522 [label="entropy = 0.0\nsamples = 2\nvalue = [0, 2, 0]", fillcolor="#39e581"] ;
521 -> 522 ;
523 [label="Horizontal quantile 1 <= 0.03\nentropy = 0.714\nsamples = 95\nvalue = [3, 11, 81]", fillcolor="#965ae9"] ;
521 -> 523 ;
524 [label="Competency <= 4.5\nentropy = 1.0\nsamples = 6\nvalue = [0, 3, 3]", fillcolor="#ffffff"] ;
523 -> 524 ;
525 [label="entropy = 0.0\nsamples = 3\nvalue = [0, 0, 3]", fillcolor="#8139e5"] ;
524 -> 525 ;
526 [label="entropy = 0.0\nsamples = 3\nvalue = [0, 3, 0]", fillcolor="#39e581"] ;
524 -> 526 ;
527 [label="Competency <= 4.5\nentropy = 0.644\nsamples = 89\nvalue = [3, 8, 78]", fillcolor="#9254e9"] ;
523 -> 527 ;
528 [label="Competency <= 3.5\nentropy = 0.475\nsamples = 49\nvalue = [0, 5, 44]", fillcolor="#8f50e8"] ;
527 -> 528 ;
529 [label="Horizontal quantile 1 <= 0.113\nentropy = 0.581\nsamples = 36\nvalue = [0, 5, 31]", fillcolor="#9559e9"] ;
528 -> 529 ;
530 [label="entropy = 0.0\nsamples = 9\nvalue = [0, 0, 9]", fillcolor="#8139e5"] ;
529 -> 530 ;
531 [label="Form_record <= 2.0\nentropy = 0.691\nsamples = 27\nvalue = [0, 5, 22]", fillcolor="#9e66eb"] ;
529 -> 531 ;
532 [label="Horizontal quantile 1 <= 0.136\nentropy = 0.619\nsamples = 26\nvalue = [0, 4, 22]", fillcolor="#985dea"] ;
531 -> 532 ;
533 [label="entropy = 0.0\nsamples = 1\nvalue = [0, 1, 0]", fillcolor="#39e581"] ;
532 -> 533 ;
534 [label="Vertical quantile 1 <= 0.266\nentropy = 0.529\nsamples = 25\nvalue = [0, 3, 22]", fillcolor="#9254e9"] ;
532 -> 534 ;
535 [label="Horizontal quantile 1 <= 0.324\nentropy = 0.696\nsamples = 16\nvalue = [0, 3, 13]", fillcolor="#9e67eb"] ;
534 -> 535 ;
536 [label="Horizontal quantile 1 <= 0.264\nentropy = 0.954\nsamples = 8\nvalue = [0, 3, 5]", fillcolor="#cdb0f5"] ;
535 -> 536 ;
537 [label="entropy = 0.0\nsamples = 3\nvalue = [0, 0, 3]", fillcolor="#8139e5"] ;
536 -> 537 ;
538 [label="Users_norm_emp <= 0.5\nentropy = 0.971\nsamples = 5\nvalue = [0, 3, 2]", fillcolor="#bdf6d5"] ;
536 -> 538 ;
539 [label="Vertical quantile 1 <= 0.237\nentropy = 0.811\nsamples = 4\nvalue = [0, 3, 1]", fillcolor="#7beeab"] ;
538 -> 539 ;
540 [label="entropy = 0.0\nsamples = 2\nvalue = [0, 2, 0]", fillcolor="#39e581"] ;
539 -> 540 ;
541 [label="Vertical quantile 1 <= 0.258\nentropy = 1.0\nsamples = 2\nvalue = [0, 1, 1]", fillcolor="#ffffff"] ;
539 -> 541 ;
542 [label="entropy = 0.0\nsamples = 1\nvalue = [0, 0, 1]", fillcolor="#8139e5"] ;
541 -> 542 ;
543 [label="entropy = 0.0\nsamples = 1\nvalue = [0, 1, 0]", fillcolor="#39e581"] ;
541 -> 543 ;
544 [label="entropy = 0.0\nsamples = 1\nvalue = [0, 0, 1]", fillcolor="#8139e5"] ;
538 -> 544 ;
545 [label="entropy = 0.0\nsamples = 8\nvalue = [0, 0, 8]", fillcolor="#8139e5"] ;
535 -> 545 ;
546 [label="entropy = 0.0\nsamples = 9\nvalue = [0, 0, 9]", fillcolor="#8139e5"] ;
534 -> 546 ;
547 [label="entropy = 0.0\nsamples = 1\nvalue = [0, 1, 0]", fillcolor="#39e581"] ;
531 -> 547 ;
548 [label="entropy = 0.0\nsamples = 13\nvalue = [0, 0, 13]", fillcolor="#8139e5"] ;
528 -> 548 ;
549 [label="Vertical quantile 1 <= 0.469\nentropy = 0.76\nsamples = 40\nvalue = [3, 3, 34]", fillcolor="#9559e9"] ;
527 -> 549 ;
550 [label="Horizontal quantile 1 <= 0.408\nentropy = 0.677\nsamples = 39\nvalue = [3, 2, 34]", fillcolor="#9254e9"] ;
549 -> 550 ;
551 [label="Horizontal quantile 1 <= 0.335\nentropy = 0.571\nsamples = 38\nvalue = [3, 1, 34]", fillcolor="#8f50e8"] ;
550 -> 551 ;
552 [label="Horizontal quantile 1 <= 0.301\nentropy = 0.884\nsamples = 20\nvalue = [3, 1, 16]", fillcolor="#9f68eb"] ;
551 -> 552 ;
553 [label="Form_record <= 0.5\nentropy = 0.337\nsamples = 16\nvalue = [1, 0, 15]", fillcolor="#8946e7"] ;
552 -> 553 ;
554 [label="entropy = 0.0\nsamples = 14\nvalue = [0, 0, 14]", fillcolor="#8139e5"] ;
553 -> 554 ;
555 [label="Form_record <= 1.5\nentropy = 1.0\nsamples = 2\nvalue = [1, 0, 1]", fillcolor="#ffffff"] ;
553 -> 555 ;
556 [label="entropy = 0.0\nsamples = 1\nvalue = [1, 0, 0]", fillcolor="#e58139"] ;
555 -> 556 ;
557 [label="entropy = 0.0\nsamples = 1\nvalue = [0, 0, 1]", fillcolor="#8139e5"] ;
555 -> 557 ;
558 [label="Horizontal quantile 1 <= 0.307\nentropy = 1.5\nsamples = 4\nvalue = [2, 1, 1]", fillcolor="#f6d5bd"] ;
552 -> 558 ;
559 [label="entropy = 0.0\nsamples = 1\nvalue = [0, 1, 0]", fillcolor="#39e581"] ;
558 -> 559 ;
560 [label="Users <= 0.5\nentropy = 0.918\nsamples = 3\nvalue = [2, 0, 1]", fillcolor="#f2c09c"] ;
558 -> 560 ;
561 [label="entropy = 0.0\nsamples = 2\nvalue = [2, 0, 0]", fillcolor="#e58139"] ;
560 -> 561 ;
562 [label="entropy = 0.0\nsamples = 1\nvalue = [0, 0, 1]", fillcolor="#8139e5"] ;
560 -> 562 ;
563 [label="entropy = 0.0\nsamples = 18\nvalue = [0, 0, 18]", fillcolor="#8139e5"] ;
551 -> 563 ;
564 [label="entropy = 0.0\nsamples = 1\nvalue = [0, 1, 0]", fillcolor="#39e581"] ;
550 -> 564 ;
565 [label="entropy = 0.0\nsamples = 1\nvalue = [0, 1, 0]", fillcolor="#39e581"] ;
549 -> 565 ;
566 [label="Horizontal quantile 1 <= 0.447\nentropy = 1.296\nsamples = 42\nvalue = [8, 7, 27]", fillcolor="#b990f0"] ;
520 -> 566 ;
567 [label="entropy = 0.0\nsamples = 3\nvalue = [3, 0, 0]", fillcolor="#e58139"] ;
566 -> 567 ;
568 [label="Form_template <= 1.5\nentropy = 1.192\nsamples = 39\nvalue = [5, 7, 27]", fillcolor="#b083ef"] ;
566 -> 568 ;
569 [label="Users_norm_emp <= 1.5\nentropy = 1.112\nsamples = 37\nvalue = [5, 5, 27]", fillcolor="#a877ed"] ;
568 -> 569 ;
570 [label="Vertical quantile 1 <= 0.216\nentropy = 0.742\nsamples = 19\nvalue = [4, 0, 15]", fillcolor="#a36eec"] ;
569 -> 570 ;
571 [label="entropy = 0.0\nsamples = 2\nvalue = [2, 0, 0]", fillcolor="#e58139"] ;
570 -> 571 ;
572 [label="Users <= 6.5\nentropy = 0.523\nsamples = 17\nvalue = [2, 0, 15]", fillcolor="#9253e8"] ;
570 -> 572 ;
573 [label="Horizontal quantile 1 <= 0.506\nentropy = 0.337\nsamples = 16\nvalue = [1, 0, 15]", fillcolor="#8946e7"] ;
572 -> 573 ;
574 [label="Horizontal quantile 1 <= 0.485\nentropy = 0.722\nsamples = 5\nvalue = [1, 0, 4]", fillcolor="#a06aec"] ;
573 -> 574 ;
575 [label="entropy = 0.0\nsamples = 4\nvalue = [0, 0, 4]", fillcolor="#8139e5"] ;
574 -> 575 ;
576 [label="entropy = 0.0\nsamples = 1\nvalue = [1, 0, 0]", fillcolor="#e58139"] ;
574 -> 576 ;
577 [label="entropy = 0.0\nsamples = 11\nvalue = [0, 0, 11]", fillcolor="#8139e5"] ;
573 -> 577 ;
578 [label="entropy = 0.0\nsamples = 1\nvalue = [1, 0, 0]", fillcolor="#e58139"] ;
572 -> 578 ;
579 [label="Competency <= 5.5\nentropy = 1.135\nsamples = 18\nvalue = [1, 5, 12]", fillcolor="#bb94f1"] ;
569 -> 579 ;
580 [label="Horizontal quantile 1 <= 0.751\nentropy = 0.994\nsamples = 11\nvalue = [0, 5, 6]", fillcolor="#eadefb"] ;
579 -> 580 ;
581 [label="Horizontal quantile 1 <= 0.539\nentropy = 0.954\nsamples = 8\nvalue = [0, 5, 3]", fillcolor="#b0f5cd"] ;
580 -> 581 ;
582 [label="Horizontal quantile 1 <= 0.475\nentropy = 0.811\nsamples = 4\nvalue = [0, 1, 3]", fillcolor="#ab7bee"] ;
581 -> 582 ;
583 [label="entropy = 0.0\nsamples = 1\nvalue = [0, 1, 0]", fillcolor="#39e581"] ;
582 -> 583 ;
584 [label="entropy = 0.0\nsamples = 3\nvalue = [0, 0, 3]", fillcolor="#8139e5"] ;
582 -> 584 ;
585 [label="entropy = 0.0\nsamples = 4\nvalue = [0, 4, 0]", fillcolor="#39e581"] ;
581 -> 585 ;
586 [label="entropy = 0.0\nsamples = 3\nvalue = [0, 0, 3]", fillcolor="#8139e5"] ;
580 -> 586 ;
587 [label="Users <= 7.0\nentropy = 0.592\nsamples = 7\nvalue = [1, 0, 6]", fillcolor="#965ae9"] ;
579 -> 587 ;
588 [label="entropy = 0.0\nsamples = 6\nvalue = [0, 0, 6]", fillcolor="#8139e5"] ;
587 -> 588 ;
589 [label="entropy = 0.0\nsamples = 1\nvalue = [1, 0, 0]", fillcolor="#e58139"] ;
587 -> 589 ;
590 [label="entropy = 0.0\nsamples = 2\nvalue = [0, 2, 0]", fillcolor="#39e581"] ;
568 -> 590 ;
591 [label="Competency <= 5.5\nentropy = 0.971\nsamples = 5\nvalue = [3, 0, 2]", fillcolor="#f6d5bd"] ;
519 -> 591 ;
592 [label="Vertical quantile 1 <= 0.335\nentropy = 0.918\nsamples = 3\nvalue = [1, 0, 2]", fillcolor="#c09cf2"] ;
591 -> 592 ;
593 [label="entropy = 0.0\nsamples = 2\nvalue = [0, 0, 2]", fillcolor="#8139e5"] ;
592 -> 593 ;
594 [label="entropy = 0.0\nsamples = 1\nvalue = [1, 0, 0]", fillcolor="#e58139"] ;
592 -> 594 ;
595 [label="entropy = 0.0\nsamples = 2\nvalue = [2, 0, 0]", fillcolor="#e58139"] ;
591 -> 595 ;
596 [label="Vertical quantile 1 <= 0.313\nentropy = 0.483\nsamples = 124\nvalue = [4, 6, 114]", fillcolor="#8c4ae7"] ;
518 -> 596 ;
597 [label="Vertical quantile 1 <= 0.235\nentropy = 0.135\nsamples = 53\nvalue = [0, 1, 52]", fillcolor="#833de6"] ;
596 -> 597 ;
598 [label="entropy = 0.0\nsamples = 1\nvalue = [0, 1, 0]", fillcolor="#39e581"] ;
597 -> 598 ;
599 [label="entropy = 0.0\nsamples = 52\nvalue = [0, 0, 52]", fillcolor="#8139e5"] ;
597 -> 599 ;
600 [label="Horizontal quantile 1 <= 0.475\nentropy = 0.674\nsamples = 71\nvalue = [4, 5, 62]", fillcolor="#9254e9"] ;
596 -> 600 ;
601 [label="Users_norm_emp <= 0.5\nentropy = 0.913\nsamples = 40\nvalue = [3, 5, 32]", fillcolor="#9e66eb"] ;
600 -> 601 ;
602 [label="Competency <= 11.5\nentropy = 0.978\nsamples = 17\nvalue = [3, 1, 13]", fillcolor="#a572ec"] ;
601 -> 602 ;
603 [label="Users_induction <= 0.5\nentropy = 0.722\nsamples = 15\nvalue = [3, 0, 12]", fillcolor="#a06aec"] ;
602 -> 603 ;
604 [label="Horizontal quantile 1 <= 0.036\nentropy = 0.592\nsamples = 14\nvalue = [2, 0, 12]", fillcolor="#965ae9"] ;
603 -> 604 ;
605 [label="entropy = 0.0\nsamples = 1\nvalue = [1, 0, 0]", fillcolor="#e58139"] ;
604 -> 605 ;
606 [label="Form_record <= 0.5\nentropy = 0.391\nsamples = 13\nvalue = [1, 0, 12]", fillcolor="#8c49e7"] ;
604 -> 606 ;
607 [label="entropy = 0.0\nsamples = 11\nvalue = [0, 0, 11]", fillcolor="#8139e5"] ;
606 -> 607 ;
608 [label="Competency <= 9.5\nentropy = 1.0\nsamples = 2\nvalue = [1, 0, 1]", fillcolor="#ffffff"] ;
606 -> 608 ;
609 [label="entropy = 0.0\nsamples = 1\nvalue = [0, 0, 1]", fillcolor="#8139e5"] ;
608 -> 609 ;
610 [label="entropy = 0.0\nsamples = 1\nvalue = [1, 0, 0]", fillcolor="#e58139"] ;
608 -> 610 ;
611 [label="entropy = 0.0\nsamples = 1\nvalue = [1, 0, 0]", fillcolor="#e58139"] ;
603 -> 611 ;
612 [label="Horizontal quantile 1 <= 0.249\nentropy = 1.0\nsamples = 2\nvalue = [0, 1, 1]", fillcolor="#ffffff"] ;
602 -> 612 ;
613 [label="entropy = 0.0\nsamples = 1\nvalue = [0, 1, 0]", fillcolor="#39e581"] ;
612 -> 613 ;
614 [label="entropy = 0.0\nsamples = 1\nvalue = [0, 0, 1]", fillcolor="#8139e5"] ;
612 -> 614 ;
615 [label="Vertical quantile 1 <= 0.321\nentropy = 0.667\nsamples = 23\nvalue = [0, 4, 19]", fillcolor="#9c63ea"] ;
601 -> 615 ;
616 [label="Assets <= 1.5\nentropy = 0.918\nsamples = 3\nvalue = [0, 2, 1]", fillcolor="#9cf2c0"] ;
615 -> 616 ;
617 [label="entropy = 0.0\nsamples = 2\nvalue = [0, 2, 0]", fillcolor="#39e581"] ;
616 -> 617 ;
618 [label="entropy = 0.0\nsamples = 1\nvalue = [0, 0, 1]", fillcolor="#8139e5"] ;
616 -> 618 ;
619 [label="Vertical quantile 1 <= 0.47\nentropy = 0.469\nsamples = 20\nvalue = [0, 2, 18]", fillcolor="#8f4fe8"] ;
615 -> 619 ;
620 [label="entropy = 0.0\nsamples = 17\nvalue = [0, 0, 17]", fillcolor="#8139e5"] ;
619 -> 620 ;
621 [label="Competency <= 11.0\nentropy = 0.918\nsamples = 3\nvalue = [0, 2, 1]", fillcolor="#9cf2c0"] ;
619 -> 621 ;
622 [label="entropy = 0.0\nsamples = 1\nvalue = [0, 1, 0]", fillcolor="#39e581"] ;
621 -> 622 ;
623 [label="Vertical quantile 1 <= 0.482\nentropy = 1.0\nsamples = 2\nvalue = [0, 1, 1]", fillcolor="#ffffff"] ;
621 -> 623 ;
624 [label="entropy = 0.0\nsamples = 1\nvalue = [0, 1, 0]", fillcolor="#39e581"] ;
623 -> 624 ;
625 [label="entropy = 0.0\nsamples = 1\nvalue = [0, 0, 1]", fillcolor="#8139e5"] ;
623 -> 625 ;
626 [label="Horizontal quantile 1 <= 0.866\nentropy = 0.206\nsamples = 31\nvalue = [1, 0, 30]", fillcolor="#8540e6"] ;
600 -> 626 ;
627 [label="entropy = 0.0\nsamples = 26\nvalue = [0, 0, 26]", fillcolor="#8139e5"] ;
626 -> 627 ;
628 [label="Vertical quantile 1 <= 0.391\nentropy = 0.722\nsamples = 5\nvalue = [1, 0, 4]", fillcolor="#a06aec"] ;
626 -> 628 ;
629 [label="entropy = 0.0\nsamples = 1\nvalue = [1, 0, 0]", fillcolor="#e58139"] ;
628 -> 629 ;
630 [label="entropy = 0.0\nsamples = 4\nvalue = [0, 0, 4]", fillcolor="#8139e5"] ;
628 -> 630 ;
631 [label="Horizontal quantile 1 <= 0.099\nentropy = 0.943\nsamples = 25\nvalue = [0, 9, 16]", fillcolor="#c8a8f4"] ;
517 -> 631 ;
632 [label="entropy = 0.0\nsamples = 2\nvalue = [0, 2, 0]", fillcolor="#39e581"] ;
631 -> 632 ;
633 [label="Form_template <= 0.5\nentropy = 0.887\nsamples = 23\nvalue = [0, 7, 16]", fillcolor="#b890f0"] ;
631 -> 633 ;
634 [label="Users_norm_emp <= 6.5\nentropy = 0.949\nsamples = 19\nvalue = [0, 7, 12]", fillcolor="#caacf4"] ;
633 -> 634 ;
635 [label="Form_record <= 0.5\nentropy = 0.989\nsamples = 16\nvalue = [0, 7, 9]", fillcolor="#e3d3f9"] ;
634 -> 635 ;
636 [label="Competency <= 8.0\nentropy = 0.996\nsamples = 13\nvalue = [0, 7, 6]", fillcolor="#e3fbed"] ;
635 -> 636 ;
637 [label="entropy = 0.0\nsamples = 3\nvalue = [0, 3, 0]", fillcolor="#39e581"] ;
636 -> 637 ;
638 [label="Competency <= 10.5\nentropy = 0.971\nsamples = 10\nvalue = [0, 4, 6]", fillcolor="#d5bdf6"] ;
636 -> 638 ;
639 [label="entropy = 0.0\nsamples = 3\nvalue = [0, 0, 3]", fillcolor="#8139e5"] ;
638 -> 639 ;
640 [label="Horizontal quantile 1 <= 1.067\nentropy = 0.985\nsamples = 7\nvalue = [0, 4, 3]", fillcolor="#cef8e0"] ;
638 -> 640 ;
641 [label="entropy = 0.0\nsamples = 1\nvalue = [0, 0, 1]", fillcolor="#8139e5"] ;
640 -> 641 ;
642 [label="Users_norm_emp <= 3.5\nentropy = 0.918\nsamples = 6\nvalue = [0, 4, 2]", fillcolor="#9cf2c0"] ;
640 -> 642 ;
643 [label="Users_norm_emp <= 0.5\nentropy = 0.971\nsamples = 5\nvalue = [0, 3, 2]", fillcolor="#bdf6d5"] ;
642 -> 643 ;
644 [label="Competency <= 11.5\nentropy = 0.811\nsamples = 4\nvalue = [0, 3, 1]", fillcolor="#7beeab"] ;
643 -> 644 ;
645 [label="entropy = 0.0\nsamples = 1\nvalue = [0, 1, 0]", fillcolor="#39e581"] ;
644 -> 645 ;
646 [label="Competency <= 12.5\nentropy = 0.918\nsamples = 3\nvalue = [0, 2, 1]", fillcolor="#9cf2c0"] ;
644 -> 646 ;
647 [label="entropy = 1.0\nsamples = 2\nvalue = [0, 1, 1]", fillcolor="#ffffff"] ;
646 -> 647 ;
648 [label="entropy = 0.0\nsamples = 1\nvalue = [0, 1, 0]", fillcolor="#39e581"] ;
646 -> 648 ;
649 [label="entropy = 0.0\nsamples = 1\nvalue = [0, 0, 1]", fillcolor="#8139e5"] ;
643 -> 649 ;
650 [label="entropy = 0.0\nsamples = 1\nvalue = [0, 1, 0]", fillcolor="#39e581"] ;
642 -> 650 ;
651 [label="entropy = 0.0\nsamples = 3\nvalue = [0, 0, 3]", fillcolor="#8139e5"] ;
635 -> 651 ;
652 [label="entropy = 0.0\nsamples = 3\nvalue = [0, 0, 3]", fillcolor="#8139e5"] ;
634 -> 652 ;
653 [label="entropy = 0.0\nsamples = 4\nvalue = [0, 0, 4]", fillcolor="#8139e5"] ;
633 -> 653 ;
654 [label="Incident <= 6.5\nentropy = 0.976\nsamples = 123\nvalue = [22, 7, 94]", fillcolor="#a572ec"] ;
516 -> 654 ;
655 [label="Horizontal quantile 1 <= 0.124\nentropy = 1.01\nsamples = 96\nvalue = [22, 4, 70]", fillcolor="#ad7fee"] ;
654 -> 655 ;
656 [label="entropy = 0.0\nsamples = 4\nvalue = [4, 0, 0]", fillcolor="#e58139"] ;
655 -> 656 ;
657 [label="Users_norm_emp <= 2.5\nentropy = 0.957\nsamples = 92\nvalue = [18, 4, 70]", fillcolor="#a674ed"] ;
655 -> 657 ;
658 [label="Users_norm_emp <= 0.5\nentropy = 1.1\nsamples = 69\nvalue = [17, 4, 48]", fillcolor="#b489f0"] ;
657 -> 658 ;
659 [label="Competency <= 5.5\nentropy = 1.008\nsamples = 43\nvalue = [6, 4, 33]", fillcolor="#a36fec"] ;
658 -> 659 ;
660 [label="Incident <= 0.5\nentropy = 0.696\nsamples = 16\nvalue = [0, 3, 13]", fillcolor="#9e67eb"] ;
659 -> 660 ;
661 [label="entropy = 0.0\nsamples = 8\nvalue = [0, 0, 8]", fillcolor="#8139e5"] ;
660 -> 661 ;
662 [label="Vertical quantile 1 <= 1.19\nentropy = 0.954\nsamples = 8\nvalue = [0, 3, 5]", fillcolor="#cdb0f5"] ;
660 -> 662 ;
663 [label="Vertical quantile 1 <= 0.324\nentropy = 1.0\nsamples = 6\nvalue = [0, 3, 3]", fillcolor="#ffffff"] ;
662 -> 663 ;
664 [label="Form_record <= 1.5\nentropy = 0.811\nsamples = 4\nvalue = [0, 1, 3]", fillcolor="#ab7bee"] ;
663 -> 664 ;
665 [label="entropy = 0.0\nsamples = 3\nvalue = [0, 0, 3]", fillcolor="#8139e5"] ;
664 -> 665 ;
666 [label="entropy = 0.0\nsamples = 1\nvalue = [0, 1, 0]", fillcolor="#39e581"] ;
664 -> 666 ;
667 [label="entropy = 0.0\nsamples = 2\nvalue = [0, 2, 0]", fillcolor="#39e581"] ;
663 -> 667 ;
668 [label="entropy = 0.0\nsamples = 2\nvalue = [0, 0, 2]", fillcolor="#8139e5"] ;
662 -> 668 ;
669 [label="Competency <= 7.5\nentropy = 0.979\nsamples = 27\nvalue = [6, 1, 20]", fillcolor="#ab7bee"] ;
659 -> 669 ;
670 [label="Incident <= 0.5\nentropy = 0.985\nsamples = 7\nvalue = [4, 0, 3]", fillcolor="#f8e0ce"] ;
669 -> 670 ;
671 [label="Vertical quantile 1 <= 0.438\nentropy = 0.811\nsamples = 4\nvalue = [1, 0, 3]", fillcolor="#ab7bee"] ;
670 -> 671 ;
672 [label="entropy = 0.0\nsamples = 3\nvalue = [0, 0, 3]", fillcolor="#8139e5"] ;
671 -> 672 ;
673 [label="entropy = 0.0\nsamples = 1\nvalue = [1, 0, 0]", fillcolor="#e58139"] ;
671 -> 673 ;
674 [label="entropy = 0.0\nsamples = 3\nvalue = [3, 0, 0]", fillcolor="#e58139"] ;
670 -> 674 ;
675 [label="Horizontal quantile 1 <= 0.464\nentropy = 0.748\nsamples = 20\nvalue = [2, 1, 17]", fillcolor="#965ae9"] ;
669 -> 675 ;
676 [label="Horizontal quantile 1 <= 0.429\nentropy = 0.811\nsamples = 4\nvalue = [0, 1, 3]", fillcolor="#ab7bee"] ;
675 -> 676 ;
677 [label="entropy = 0.0\nsamples = 3\nvalue = [0, 0, 3]", fillcolor="#8139e5"] ;
676 -> 677 ;
678 [label="entropy = 0.0\nsamples = 1\nvalue = [0, 1, 0]", fillcolor="#39e581"] ;
676 -> 678 ;
679 [label="Vertical quantile 1 <= 0.326\nentropy = 0.544\nsamples = 16\nvalue = [2, 0, 14]", fillcolor="#9355e9"] ;
675 -> 679 ;
680 [label="entropy = 0.0\nsamples = 7\nvalue = [0, 0, 7]", fillcolor="#8139e5"] ;
679 -> 680 ;
681 [label="Vertical quantile 1 <= 0.344\nentropy = 0.764\nsamples = 9\nvalue = [2, 0, 7]", fillcolor="#a572ec"] ;
679 -> 681 ;
682 [label="entropy = 0.0\nsamples = 1\nvalue = [1, 0, 0]", fillcolor="#e58139"] ;
681 -> 682 ;
683 [label="Actions <= 1.5\nentropy = 0.544\nsamples = 8\nvalue = [1, 0, 7]", fillcolor="#9355e9"] ;
681 -> 683 ;
684 [label="entropy = 0.0\nsamples = 1\nvalue = [1, 0, 0]", fillcolor="#e58139"] ;
683 -> 684 ;
685 [label="entropy = 0.0\nsamples = 7\nvalue = [0, 0, 7]", fillcolor="#8139e5"] ;
683 -> 685 ;
686 [label="Actions <= 181.0\nentropy = 0.983\nsamples = 26\nvalue = [11, 0, 15]", fillcolor="#ddcaf8"] ;
658 -> 686 ;
687 [label="Actions <= 70.5\nentropy = 0.954\nsamples = 24\nvalue = [9, 0, 15]", fillcolor="#cdb0f5"] ;
686 -> 687 ;
688 [label="Horizontal quantile 1 <= 0.953\nentropy = 0.998\nsamples = 17\nvalue = [8, 0, 9]", fillcolor="#f1e9fc"] ;
687 -> 688 ;
689 [label="Incident <= 1.5\nentropy = 0.918\nsamples = 12\nvalue = [8, 0, 4]", fillcolor="#f2c09c"] ;
688 -> 689 ;
690 [label="Actions <= 9.0\nentropy = 1.0\nsamples = 8\nvalue = [4, 0, 4]", fillcolor="#ffffff"] ;
689 -> 690 ;
691 [label="Vertical quantile 1 <= 0.311\nentropy = 0.918\nsamples = 6\nvalue = [2, 0, 4]", fillcolor="#c09cf2"] ;
690 -> 691 ;
692 [label="Actions <= 3.5\nentropy = 0.918\nsamples = 3\nvalue = [2, 0, 1]", fillcolor="#f2c09c"] ;
691 -> 692 ;
693 [label="entropy = 0.0\nsamples = 2\nvalue = [2, 0, 0]", fillcolor="#e58139"] ;
692 -> 693 ;
694 [label="entropy = 0.0\nsamples = 1\nvalue = [0, 0, 1]", fillcolor="#8139e5"] ;
692 -> 694 ;
695 [label="entropy = 0.0\nsamples = 3\nvalue = [0, 0, 3]", fillcolor="#8139e5"] ;
691 -> 695 ;
696 [label="entropy = 0.0\nsamples = 2\nvalue = [2, 0, 0]", fillcolor="#e58139"] ;
690 -> 696 ;
697 [label="entropy = 0.0\nsamples = 4\nvalue = [4, 0, 0]", fillcolor="#e58139"] ;
689 -> 697 ;
698 [label="entropy = 0.0\nsamples = 5\nvalue = [0, 0, 5]", fillcolor="#8139e5"] ;
688 -> 698 ;
699 [label="Horizontal quantile 1 <= 1.245\nentropy = 0.592\nsamples = 7\nvalue = [1, 0, 6]", fillcolor="#965ae9"] ;
687 -> 699 ;
700 [label="entropy = 0.0\nsamples = 5\nvalue = [0, 0, 5]", fillcolor="#8139e5"] ;
699 -> 700 ;
701 [label="Actions <= 154.5\nentropy = 1.0\nsamples = 2\nvalue = [1, 0, 1]", fillcolor="#ffffff"] ;
699 -> 701 ;
702 [label="entropy = 0.0\nsamples = 1\nvalue = [1, 0, 0]", fillcolor="#e58139"] ;
701 -> 702 ;
703 [label="entropy = 0.0\nsamples = 1\nvalue = [0, 0, 1]", fillcolor="#8139e5"] ;
701 -> 703 ;
704 [label="entropy = 0.0\nsamples = 2\nvalue = [2, 0, 0]", fillcolor="#e58139"] ;
686 -> 704 ;
705 [label="Vertical quantile 1 <= 0.239\nentropy = 0.258\nsamples = 23\nvalue = [1, 0, 22]", fillcolor="#8742e6"] ;
657 -> 705 ;
706 [label="Incident <= 1.0\nentropy = 0.918\nsamples = 3\nvalue = [1, 0, 2]", fillcolor="#c09cf2"] ;
705 -> 706 ;
707 [label="entropy = 0.0\nsamples = 1\nvalue = [1, 0, 0]", fillcolor="#e58139"] ;
706 -> 707 ;
708 [label="entropy = 0.0\nsamples = 2\nvalue = [0, 0, 2]", fillcolor="#8139e5"] ;
706 -> 708 ;
709 [label="entropy = 0.0\nsamples = 20\nvalue = [0, 0, 20]", fillcolor="#8139e5"] ;
705 -> 709 ;
710 [label="Actions <= 120.5\nentropy = 0.503\nsamples = 27\nvalue = [0, 3, 24]", fillcolor="#9152e8"] ;
654 -> 710 ;
711 [label="entropy = 0.0\nsamples = 21\nvalue = [0, 0, 21]", fillcolor="#8139e5"] ;
710 -> 711 ;
712 [label="Users <= 3.5\nentropy = 1.0\nsamples = 6\nvalue = [0, 3, 3]", fillcolor="#ffffff"] ;
710 -> 712 ;
713 [label="Vertical quantile 1 <= 0.237\nentropy = 0.811\nsamples = 4\nvalue = [0, 3, 1]", fillcolor="#7beeab"] ;
712 -> 713 ;
714 [label="entropy = 0.0\nsamples = 1\nvalue = [0, 0, 1]", fillcolor="#8139e5"] ;
713 -> 714 ;
715 [label="entropy = 0.0\nsamples = 3\nvalue = [0, 3, 0]", fillcolor="#39e581"] ;
713 -> 715 ;
716 [label="entropy = 0.0\nsamples = 2\nvalue = [0, 0, 2]", fillcolor="#8139e5"] ;
712 -> 716 ;
717 [label="Users_norm_emp <= 4.5\nentropy = 0.584\nsamples = 486\nvalue = [48, 8, 430]", fillcolor="#9152e8"] ;
15 -> 717 ;
718 [label="Actions <= 0.5\nentropy = 0.388\nsamples = 398\nvalue = [19, 6, 373]", fillcolor="#8946e7"] ;
717 -> 718 ;
719 [label="Horizontal quantile 1 <= 0.431\nentropy = 0.38\nsamples = 205\nvalue = [6, 6, 193]", fillcolor="#8945e7"] ;
718 -> 719 ;
720 [label="Horizontal quantile 1 <= 0.421\nentropy = 0.613\nsamples = 81\nvalue = [4, 5, 72]", fillcolor="#9050e8"] ;
719 -> 720 ;
721 [label="Vertical quantile 1 <= 0.236\nentropy = 0.569\nsamples = 80\nvalue = [4, 4, 72]", fillcolor="#8e4ee8"] ;
720 -> 721 ;
722 [label="Vertical quantile 1 <= 0.228\nentropy = 0.592\nsamples = 14\nvalue = [0, 2, 12]", fillcolor="#965ae9"] ;
721 -> 722 ;
723 [label="entropy = 0.0\nsamples = 12\nvalue = [0, 0, 12]", fillcolor="#8139e5"] ;
722 -> 723 ;
724 [label="entropy = 0.0\nsamples = 2\nvalue = [0, 2, 0]", fillcolor="#39e581"] ;
722 -> 724 ;
725 [label="Horizontal quantile 1 <= 0.058\nentropy = 0.523\nsamples = 66\nvalue = [4, 2, 60]", fillcolor="#8d4ce8"] ;
721 -> 725 ;
726 [label="Vertical quantile 1 <= 0.69\nentropy = 0.678\nsamples = 23\nvalue = [1, 2, 20]", fillcolor="#9355e9"] ;
725 -> 726 ;
727 [label="Competency <= 1.0\nentropy = 0.454\nsamples = 21\nvalue = [0, 2, 19]", fillcolor="#8e4ee8"] ;
726 -> 727 ;
728 [label="Form_record <= 8.5\nentropy = 0.286\nsamples = 20\nvalue = [0, 1, 19]", fillcolor="#8843e6"] ;
727 -> 728 ;
729 [label="entropy = 0.0\nsamples = 18\nvalue = [0, 0, 18]", fillcolor="#8139e5"] ;
728 -> 729 ;
730 [label="Vertical quantile 1 <= 0.404\nentropy = 1.0\nsamples = 2\nvalue = [0, 1, 1]", fillcolor="#ffffff"] ;
728 -> 730 ;
731 [label="entropy = 0.0\nsamples = 1\nvalue = [0, 0, 1]", fillcolor="#8139e5"] ;
730 -> 731 ;
732 [label="entropy = 0.0\nsamples = 1\nvalue = [0, 1, 0]", fillcolor="#39e581"] ;
730 -> 732 ;
733 [label="entropy = 0.0\nsamples = 1\nvalue = [0, 1, 0]", fillcolor="#39e581"] ;
727 -> 733 ;
734 [label="Incident <= 0.5\nentropy = 1.0\nsamples = 2\nvalue = [1, 0, 1]", fillcolor="#ffffff"] ;
726 -> 734 ;
735 [label="entropy = 0.0\nsamples = 1\nvalue = [0, 0, 1]", fillcolor="#8139e5"] ;
734 -> 735 ;
736 [label="entropy = 0.0\nsamples = 1\nvalue = [1, 0, 0]", fillcolor="#e58139"] ;
734 -> 736 ;
737 [label="Form_record <= 6.5\nentropy = 0.365\nsamples = 43\nvalue = [3, 0, 40]", fillcolor="#8a48e7"] ;
725 -> 737 ;
738 [label="Vertical quantile 1 <= 0.439\nentropy = 0.559\nsamples = 23\nvalue = [3, 0, 20]", fillcolor="#9457e9"] ;
737 -> 738 ;
739 [label="Horizontal quantile 1 <= 0.218\nentropy = 0.439\nsamples = 22\nvalue = [2, 0, 20]", fillcolor="#8e4de8"] ;
738 -> 739 ;
740 [label="entropy = 0.0\nsamples = 12\nvalue = [0, 0, 12]", fillcolor="#8139e5"] ;
739 -> 740 ;
741 [label="Vertical quantile 1 <= 0.243\nentropy = 0.722\nsamples = 10\nvalue = [2, 0, 8]", fillcolor="#a06aec"] ;
739 -> 741 ;
742 [label="entropy = 0.0\nsamples = 1\nvalue = [1, 0, 0]", fillcolor="#e58139"] ;
741 -> 742 ;
743 [label="Assets <= 32.0\nentropy = 0.503\nsamples = 9\nvalue = [1, 0, 8]", fillcolor="#9152e8"] ;
741 -> 743 ;
744 [label="entropy = 0.0\nsamples = 7\nvalue = [0, 0, 7]", fillcolor="#8139e5"] ;
743 -> 744 ;
745 [label="Form_record <= 5.5\nentropy = 1.0\nsamples = 2\nvalue = [1, 0, 1]", fillcolor="#ffffff"] ;
743 -> 745 ;
746 [label="entropy = 0.0\nsamples = 1\nvalue = [0, 0, 1]", fillcolor="#8139e5"] ;
745 -> 746 ;
747 [label="entropy = 0.0\nsamples = 1\nvalue = [1, 0, 0]", fillcolor="#e58139"] ;
745 -> 747 ;
748 [label="entropy = 0.0\nsamples = 1\nvalue = [1, 0, 0]", fillcolor="#e58139"] ;
738 -> 748 ;
749 [label="entropy = 0.0\nsamples = 20\nvalue = [0, 0, 20]", fillcolor="#8139e5"] ;
737 -> 749 ;
750 [label="entropy = 0.0\nsamples = 1\nvalue = [0, 1, 0]", fillcolor="#39e581"] ;
720 -> 750 ;
751 [label="Users_norm_emp <= 3.0\nentropy = 0.187\nsamples = 124\nvalue = [2, 1, 121]", fillcolor="#843ee6"] ;
719 -> 751 ;
752 [label="Horizontal quantile 1 <= 0.824\nentropy = 0.121\nsamples = 121\nvalue = [2, 0, 119]", fillcolor="#833ce5"] ;
751 -> 752 ;
753 [label="Horizontal quantile 1 <= 0.823\nentropy = 0.191\nsamples = 68\nvalue = [2, 0, 66]", fillcolor="#853fe6"] ;
752 -> 753 ;
754 [label="Vertical quantile 1 <= 0.22\nentropy = 0.112\nsamples = 67\nvalue = [1, 0, 66]", fillcolor="#833ce5"] ;
753 -> 754 ;
755 [label="Vertical quantile 1 <= 0.216\nentropy = 0.503\nsamples = 9\nvalue = [1, 0, 8]", fillcolor="#9152e8"] ;
754 -> 755 ;
756 [label="entropy = 0.0\nsamples = 8\nvalue = [0, 0, 8]", fillcolor="#8139e5"] ;
755 -> 756 ;
757 [label="entropy = 0.0\nsamples = 1\nvalue = [1, 0, 0]", fillcolor="#e58139"] ;
755 -> 757 ;
758 [label="entropy = 0.0\nsamples = 58\nvalue = [0, 0, 58]", fillcolor="#8139e5"] ;
754 -> 758 ;
759 [label="entropy = 0.0\nsamples = 1\nvalue = [1, 0, 0]", fillcolor="#e58139"] ;
753 -> 759 ;
760 [label="entropy = 0.0\nsamples = 53\nvalue = [0, 0, 53]", fillcolor="#8139e5"] ;
752 -> 760 ;
761 [label="Form_record <= 7.5\nentropy = 0.918\nsamples = 3\nvalue = [0, 1, 2]", fillcolor="#c09cf2"] ;
751 -> 761 ;
762 [label="entropy = 0.0\nsamples = 2\nvalue = [0, 0, 2]", fillcolor="#8139e5"] ;
761 -> 762 ;
763 [label="entropy = 0.0\nsamples = 1\nvalue = [0, 1, 0]", fillcolor="#39e581"] ;
761 -> 763 ;
764 [label="Horizontal quantile 1 <= 0.819\nentropy = 0.356\nsamples = 193\nvalue = [13, 0, 180]", fillcolor="#8a47e7"] ;
718 -> 764 ;
765 [label="Form_template <= 9.5\nentropy = 0.14\nsamples = 101\nvalue = [2, 0, 99]", fillcolor="#843de6"] ;
764 -> 765 ;
766 [label="Vertical quantile 1 <= 0.215\nentropy = 0.081\nsamples = 100\nvalue = [1, 0, 99]", fillcolor="#823be5"] ;
765 -> 766 ;
767 [label="Vertical quantile 1 <= 0.211\nentropy = 0.391\nsamples = 13\nvalue = [1, 0, 12]", fillcolor="#8c49e7"] ;
766 -> 767 ;
768 [label="entropy = 0.0\nsamples = 12\nvalue = [0, 0, 12]", fillcolor="#8139e5"] ;
767 -> 768 ;
769 [label="entropy = 0.0\nsamples = 1\nvalue = [1, 0, 0]", fillcolor="#e58139"] ;
767 -> 769 ;
770 [label="entropy = 0.0\nsamples = 87\nvalue = [0, 0, 87]", fillcolor="#8139e5"] ;
766 -> 770 ;
771 [label="entropy = 0.0\nsamples = 1\nvalue = [1, 0, 0]", fillcolor="#e58139"] ;
765 -> 771 ;
772 [label="Vertical quantile 1 <= 0.369\nentropy = 0.528\nsamples = 92\nvalue = [11, 0, 81]", fillcolor="#9254e9"] ;
764 -> 772 ;
773 [label="Horizontal quantile 1 <= 0.832\nentropy = 0.73\nsamples = 49\nvalue = [10, 0, 39]", fillcolor="#a16cec"] ;
772 -> 773 ;
774 [label="entropy = 0.0\nsamples = 2\nvalue = [2, 0, 0]", fillcolor="#e58139"] ;
773 -> 774 ;
775 [label="Actions <= 3.5\nentropy = 0.658\nsamples = 47\nvalue = [8, 0, 39]", fillcolor="#9b62ea"] ;
773 -> 775 ;
776 [label="entropy = 0.0\nsamples = 18\nvalue = [0, 0, 18]", fillcolor="#8139e5"] ;
775 -> 776 ;
777 [label="Vertical quantile 1 <= 0.356\nentropy = 0.85\nsamples = 29\nvalue = [8, 0, 21]", fillcolor="#b184ef"] ;
775 -> 777 ;
778 [label="Incident <= 9.5\nentropy = 0.764\nsamples = 27\nvalue = [6, 0, 21]", fillcolor="#a572ec"] ;
777 -> 778 ;
779 [label="Horizontal quantile 1 <= 0.878\nentropy = 0.863\nsamples = 21\nvalue = [6, 0, 15]", fillcolor="#b388ef"] ;
778 -> 779 ;
780 [label="entropy = 0.0\nsamples = 5\nvalue = [0, 0, 5]", fillcolor="#8139e5"] ;
779 -> 780 ;
781 [label="Form_record <= 4.5\nentropy = 0.954\nsamples = 16\nvalue = [6, 0, 10]", fillcolor="#cdb0f5"] ;
779 -> 781 ;
782 [label="entropy = 0.0\nsamples = 2\nvalue = [2, 0, 0]", fillcolor="#e58139"] ;
781 -> 782 ;
783 [label="Vertical quantile 1 <= 0.26\nentropy = 0.863\nsamples = 14\nvalue = [4, 0, 10]", fillcolor="#b388ef"] ;
781 -> 783 ;
784 [label="Horizontal quantile 1 <= 0.886\nentropy = 0.991\nsamples = 9\nvalue = [4, 0, 5]", fillcolor="#e6d7fa"] ;
783 -> 784 ;
785 [label="entropy = 0.0\nsamples = 2\nvalue = [2, 0, 0]", fillcolor="#e58139"] ;
784 -> 785 ;
786 [label="Users <= 1.0\nentropy = 0.863\nsamples = 7\nvalue = [2, 0, 5]", fillcolor="#b388ef"] ;
784 -> 786 ;
787 [label="Horizontal quantile 1 <= 0.906\nentropy = 0.65\nsamples = 6\nvalue = [1, 0, 5]", fillcolor="#9a61ea"] ;
786 -> 787 ;
788 [label="Horizontal quantile 1 <= 0.896\nentropy = 1.0\nsamples = 2\nvalue = [1, 0, 1]", fillcolor="#ffffff"] ;
787 -> 788 ;
789 [label="entropy = 0.0\nsamples = 1\nvalue = [0, 0, 1]", fillcolor="#8139e5"] ;
788 -> 789 ;
790 [label="entropy = 0.0\nsamples = 1\nvalue = [1, 0, 0]", fillcolor="#e58139"] ;
788 -> 790 ;
791 [label="entropy = 0.0\nsamples = 4\nvalue = [0, 0, 4]", fillcolor="#8139e5"] ;
787 -> 791 ;
792 [label="entropy = 0.0\nsamples = 1\nvalue = [1, 0, 0]", fillcolor="#e58139"] ;
786 -> 792 ;
793 [label="entropy = 0.0\nsamples = 5\nvalue = [0, 0, 5]", fillcolor="#8139e5"] ;
783 -> 793 ;
794 [label="entropy = 0.0\nsamples = 6\nvalue = [0, 0, 6]", fillcolor="#8139e5"] ;
778 -> 794 ;
795 [label="entropy = 0.0\nsamples = 2\nvalue = [2, 0, 0]", fillcolor="#e58139"] ;
777 -> 795 ;
796 [label="Assets <= 2.5\nentropy = 0.159\nsamples = 43\nvalue = [1, 0, 42]", fillcolor="#843ee6"] ;
772 -> 796 ;
797 [label="entropy = 0.0\nsamples = 41\nvalue = [0, 0, 41]", fillcolor="#8139e5"] ;
796 -> 797 ;
798 [label="Assets <= 37.0\nentropy = 1.0\nsamples = 2\nvalue = [1, 0, 1]", fillcolor="#ffffff"] ;
796 -> 798 ;
799 [label="entropy = 0.0\nsamples = 1\nvalue = [1, 0, 0]", fillcolor="#e58139"] ;
798 -> 799 ;
800 [label="entropy = 0.0\nsamples = 1\nvalue = [0, 0, 1]", fillcolor="#8139e5"] ;
798 -> 800 ;
801 [label="Users_norm_emp <= 5.5\nentropy = 1.058\nsamples = 88\nvalue = [29, 2, 57]", fillcolor="#c3a1f3"] ;
717 -> 801 ;
802 [label="Vertical quantile 1 <= 0.34\nentropy = 0.391\nsamples = 26\nvalue = [24, 0, 2]", fillcolor="#e78c49"] ;
801 -> 802 ;
803 [label="entropy = 0.0\nsamples = 2\nvalue = [0, 0, 2]", fillcolor="#8139e5"] ;
802 -> 803 ;
804 [label="entropy = 0.0\nsamples = 24\nvalue = [24, 0, 0]", fillcolor="#e58139"] ;
802 -> 804 ;
805 [label="Form_record <= 5.5\nentropy = 0.606\nsamples = 62\nvalue = [5, 2, 55]", fillcolor="#9051e8"] ;
801 -> 805 ;
806 [label="Actions <= 9.0\nentropy = 0.663\nsamples = 29\nvalue = [5, 0, 24]", fillcolor="#9b62ea"] ;
805 -> 806 ;
807 [label="Form_template <= 0.5\nentropy = 0.971\nsamples = 10\nvalue = [4, 0, 6]", fillcolor="#d5bdf6"] ;
806 -> 807 ;
808 [label="Actions <= 6.0\nentropy = 0.592\nsamples = 7\nvalue = [1, 0, 6]", fillcolor="#965ae9"] ;
807 -> 808 ;
809 [label="entropy = 0.0\nsamples = 6\nvalue = [0, 0, 6]", fillcolor="#8139e5"] ;
808 -> 809 ;
810 [label="entropy = 0.0\nsamples = 1\nvalue = [1, 0, 0]", fillcolor="#e58139"] ;
808 -> 810 ;
811 [label="entropy = 0.0\nsamples = 3\nvalue = [3, 0, 0]", fillcolor="#e58139"] ;
807 -> 811 ;
812 [label="Incident <= 9.5\nentropy = 0.297\nsamples = 19\nvalue = [1, 0, 18]", fillcolor="#8844e6"] ;
806 -> 812 ;
813 [label="Vertical quantile 1 <= 0.287\nentropy = 1.0\nsamples = 2\nvalue = [1, 0, 1]", fillcolor="#ffffff"] ;
812 -> 813 ;
814 [label="entropy = 0.0\nsamples = 1\nvalue = [1, 0, 0]", fillcolor="#e58139"] ;
813 -> 814 ;
815 [label="entropy = 0.0\nsamples = 1\nvalue = [0, 0, 1]", fillcolor="#8139e5"] ;
813 -> 815 ;
816 [label="entropy = 0.0\nsamples = 17\nvalue = [0, 0, 17]", fillcolor="#8139e5"] ;
812 -> 816 ;
817 [label="Actions <= 0.5\nentropy = 0.33\nsamples = 33\nvalue = [0, 2, 31]", fillcolor="#8946e7"] ;
805 -> 817 ;
818 [label="Horizontal quantile 1 <= 0.972\nentropy = 0.918\nsamples = 6\nvalue = [0, 2, 4]", fillcolor="#c09cf2"] ;
817 -> 818 ;
819 [label="entropy = 0.0\nsamples = 2\nvalue = [0, 2, 0]", fillcolor="#39e581"] ;
818 -> 819 ;
820 [label="entropy = 0.0\nsamples = 4\nvalue = [0, 0, 4]", fillcolor="#8139e5"] ;
818 -> 820 ;
821 [label="entropy = 0.0\nsamples = 27\nvalue = [0, 0, 27]", fillcolor="#8139e5"] ;
817 -> 821 ;
822 [label="Users_induction <= 7.5\nentropy = 0.205\nsamples = 680\nvalue = [4, 15, 661]", fillcolor="#853fe6"] ;
14 -> 822 ;
823 [label="Horizontal quantile 1 <= 0.541\nentropy = 0.385\nsamples = 223\nvalue = [3, 11, 209]", fillcolor="#8946e7"] ;
822 -> 823 ;
824 [label="Actions <= 55.5\nentropy = 0.246\nsamples = 193\nvalue = [1, 6, 186]", fillcolor="#8640e6"] ;
823 -> 824 ;
825 [label="Vertical quantile 1 <= 0.253\nentropy = 0.201\nsamples = 192\nvalue = [0, 6, 186]", fillcolor="#853fe6"] ;
824 -> 825 ;
826 [label="entropy = 0.0\nsamples = 52\nvalue = [0, 0, 52]", fillcolor="#8139e5"] ;
825 -> 826 ;
827 [label="Horizontal quantile 1 <= 0.192\nentropy = 0.255\nsamples = 140\nvalue = [0, 6, 134]", fillcolor="#8742e6"] ;
825 -> 827 ;
828 [label="Users <= 4.5\nentropy = 0.14\nsamples = 101\nvalue = [0, 2, 99]", fillcolor="#843de6"] ;
827 -> 828 ;
829 [label="Vertical quantile 1 <= 0.621\nentropy = 0.337\nsamples = 32\nvalue = [0, 2, 30]", fillcolor="#8946e7"] ;
828 -> 829 ;
830 [label="Vertical quantile 1 <= 0.266\nentropy = 0.206\nsamples = 31\nvalue = [0, 1, 30]", fillcolor="#8540e6"] ;
829 -> 830 ;
831 [label="Incident <= 3.0\nentropy = 1.0\nsamples = 2\nvalue = [0, 1, 1]", fillcolor="#ffffff"] ;
830 -> 831 ;
832 [label="entropy = 0.0\nsamples = 1\nvalue = [0, 1, 0]", fillcolor="#39e581"] ;
831 -> 832 ;
833 [label="entropy = 0.0\nsamples = 1\nvalue = [0, 0, 1]", fillcolor="#8139e5"] ;
831 -> 833 ;
834 [label="entropy = 0.0\nsamples = 29\nvalue = [0, 0, 29]", fillcolor="#8139e5"] ;
830 -> 834 ;
835 [label="entropy = 0.0\nsamples = 1\nvalue = [0, 1, 0]", fillcolor="#39e581"] ;
829 -> 835 ;
836 [label="entropy = 0.0\nsamples = 69\nvalue = [0, 0, 69]", fillcolor="#8139e5"] ;
828 -> 836 ;
837 [label="Form_template <= 0.5\nentropy = 0.477\nsamples = 39\nvalue = [0, 4, 35]", fillcolor="#8f50e8"] ;
827 -> 837 ;
838 [label="Vertical quantile 1 <= 0.257\nentropy = 0.398\nsamples = 38\nvalue = [0, 3, 35]", fillcolor="#8c4ae7"] ;
837 -> 838 ;
839 [label="entropy = 0.0\nsamples = 1\nvalue = [0, 1, 0]", fillcolor="#39e581"] ;
838 -> 839 ;
840 [label="Horizontal quantile 1 <= 0.197\nentropy = 0.303\nsamples = 37\nvalue = [0, 2, 35]", fillcolor="#8844e6"] ;
838 -> 840 ;
841 [label="entropy = 0.0\nsamples = 1\nvalue = [0, 1, 0]", fillcolor="#39e581"] ;
840 -> 841 ;
842 [label="Users_induction <= 6.5\nentropy = 0.183\nsamples = 36\nvalue = [0, 1, 35]", fillcolor="#853fe6"] ;
840 -> 842 ;
843 [label="entropy = 0.0\nsamples = 25\nvalue = [0, 0, 25]", fillcolor="#8139e5"] ;
842 -> 843 ;
844 [label="Vertical quantile 1 <= 0.296\nentropy = 0.439\nsamples = 11\nvalue = [0, 1, 10]", fillcolor="#8e4de8"] ;
842 -> 844 ;
845 [label="Horizontal quantile 1 <= 0.259\nentropy = 0.918\nsamples = 3\nvalue = [0, 1, 2]", fillcolor="#c09cf2"] ;
844 -> 845 ;
846 [label="entropy = 0.0\nsamples = 1\nvalue = [0, 1, 0]", fillcolor="#39e581"] ;
845 -> 846 ;
847 [label="entropy = 0.0\nsamples = 2\nvalue = [0, 0, 2]", fillcolor="#8139e5"] ;
845 -> 847 ;
848 [label="entropy = 0.0\nsamples = 8\nvalue = [0, 0, 8]", fillcolor="#8139e5"] ;
844 -> 848 ;
849 [label="entropy = 0.0\nsamples = 1\nvalue = [0, 1, 0]", fillcolor="#39e581"] ;
837 -> 849 ;
850 [label="entropy = 0.0\nsamples = 1\nvalue = [1, 0, 0]", fillcolor="#e58139"] ;
824 -> 850 ;
851 [label="Horizontal quantile 1 <= 0.56\nentropy = 0.985\nsamples = 30\nvalue = [2, 5, 23]", fillcolor="#a470ec"] ;
823 -> 851 ;
852 [label="entropy = 0.0\nsamples = 1\nvalue = [1, 0, 0]", fillcolor="#e58139"] ;
851 -> 852 ;
853 [label="Users_induction <= 3.5\nentropy = 0.87\nsamples = 29\nvalue = [1, 5, 23]", fillcolor="#a06aec"] ;
851 -> 853 ;
854 [label="Competency <= 2.5\nentropy = 0.918\nsamples = 3\nvalue = [1, 0, 2]", fillcolor="#c09cf2"] ;
853 -> 854 ;
855 [label="entropy = 0.0\nsamples = 1\nvalue = [1, 0, 0]", fillcolor="#e58139"] ;
854 -> 855 ;
856 [label="entropy = 0.0\nsamples = 2\nvalue = [0, 0, 2]", fillcolor="#8139e5"] ;
854 -> 856 ;
857 [label="Vertical quantile 1 <= 0.232\nentropy = 0.706\nsamples = 26\nvalue = [0, 5, 21]", fillcolor="#9f68eb"] ;
853 -> 857 ;
858 [label="entropy = 0.0\nsamples = 8\nvalue = [0, 0, 8]", fillcolor="#8139e5"] ;
857 -> 858 ;
859 [label="Vertical quantile 1 <= 0.257\nentropy = 0.852\nsamples = 18\nvalue = [0, 5, 13]", fillcolor="#b185ef"] ;
857 -> 859 ;
860 [label="entropy = 0.0\nsamples = 2\nvalue = [0, 2, 0]", fillcolor="#39e581"] ;
859 -> 860 ;
861 [label="Competency <= 8.5\nentropy = 0.696\nsamples = 16\nvalue = [0, 3, 13]", fillcolor="#9e67eb"] ;
859 -> 861 ;
862 [label="Horizontal quantile 1 <= 1.488\nentropy = 0.567\nsamples = 15\nvalue = [0, 2, 13]", fillcolor="#9457e9"] ;
861 -> 862 ;
863 [label="entropy = 0.0\nsamples = 10\nvalue = [0, 0, 10]", fillcolor="#8139e5"] ;
862 -> 863 ;
864 [label="Users_induction <= 6.5\nentropy = 0.971\nsamples = 5\nvalue = [0, 2, 3]", fillcolor="#d5bdf6"] ;
862 -> 864 ;
865 [label="Form_template <= 4.0\nentropy = 1.0\nsamples = 4\nvalue = [0, 2, 2]", fillcolor="#ffffff"] ;
864 -> 865 ;
866 [label="entropy = 0.0\nsamples = 1\nvalue = [0, 1, 0]", fillcolor="#39e581"] ;
865 -> 866 ;
867 [label="entropy = 0.918\nsamples = 3\nvalue = [0, 1, 2]", fillcolor="#c09cf2"] ;
865 -> 867 ;
868 [label="entropy = 0.0\nsamples = 1\nvalue = [0, 0, 1]", fillcolor="#8139e5"] ;
864 -> 868 ;
869 [label="entropy = 0.0\nsamples = 1\nvalue = [0, 1, 0]", fillcolor="#39e581"] ;
861 -> 869 ;
870 [label="Users_norm_emp <= 0.5\nentropy = 0.095\nsamples = 457\nvalue = [1, 4, 452]", fillcolor="#823be5"] ;
822 -> 870 ;
871 [label="Horizontal quantile 1 <= 0.555\nentropy = 0.049\nsamples = 413\nvalue = [1, 1, 411]", fillcolor="#823ae5"] ;
870 -> 871 ;
872 [label="entropy = 0.0\nsamples = 281\nvalue = [0, 0, 281]", fillcolor="#8139e5"] ;
871 -> 872 ;
873 [label="Horizontal quantile 1 <= 0.557\nentropy = 0.128\nsamples = 132\nvalue = [1, 1, 130]", fillcolor="#833ce5"] ;
871 -> 873 ;
874 [label="entropy = 0.0\nsamples = 1\nvalue = [0, 1, 0]", fillcolor="#39e581"] ;
873 -> 874 ;
875 [label="Users_induction <= 11.5\nentropy = 0.065\nsamples = 131\nvalue = [1, 0, 130]", fillcolor="#823be5"] ;
873 -> 875 ;
876 [label="Vertical quantile 1 <= 0.412\nentropy = 0.391\nsamples = 13\nvalue = [1, 0, 12]", fillcolor="#8c49e7"] ;
875 -> 876 ;
877 [label="entropy = 0.0\nsamples = 11\nvalue = [0, 0, 11]", fillcolor="#8139e5"] ;
876 -> 877 ;
878 [label="Vertical quantile 1 <= 1.222\nentropy = 1.0\nsamples = 2\nvalue = [1, 0, 1]", fillcolor="#ffffff"] ;
876 -> 878 ;
879 [label="entropy = 0.0\nsamples = 1\nvalue = [1, 0, 0]", fillcolor="#e58139"] ;
878 -> 879 ;
880 [label="entropy = 0.0\nsamples = 1\nvalue = [0, 0, 1]", fillcolor="#8139e5"] ;
878 -> 880 ;
881 [label="entropy = 0.0\nsamples = 118\nvalue = [0, 0, 118]", fillcolor="#8139e5"] ;
875 -> 881 ;
882 [label="Vertical quantile 1 <= 0.433\nentropy = 0.359\nsamples = 44\nvalue = [0, 3, 41]", fillcolor="#8a47e7"] ;
870 -> 882 ;
883 [label="entropy = 0.0\nsamples = 34\nvalue = [0, 0, 34]", fillcolor="#8139e5"] ;
882 -> 883 ;
884 [label="Users_induction <= 14.5\nentropy = 0.881\nsamples = 10\nvalue = [0, 3, 7]", fillcolor="#b78ef0"] ;
882 -> 884 ;
885 [label="entropy = 0.0\nsamples = 4\nvalue = [0, 0, 4]", fillcolor="#8139e5"] ;
884 -> 885 ;
886 [label="Users <= 22.5\nentropy = 1.0\nsamples = 6\nvalue = [0, 3, 3]", fillcolor="#ffffff"] ;
884 -> 886 ;
887 [label="entropy = 0.0\nsamples = 3\nvalue = [0, 3, 0]", fillcolor="#39e581"] ;
886 -> 887 ;
888 [label="entropy = 0.0\nsamples = 3\nvalue = [0, 0, 3]", fillcolor="#8139e5"] ;
886 -> 888 ;
}